{
  "layers": [
    {
      "weights": [
        [
          -0.025342798333641378,
          -0.03228177951735752,
          0.012495499629766824,
          0.03582128594931723,
          0.04856766491794185,
          -0.03972219777262431,
          0.031321372477820596,
          -0.0335052634459172,
          0.0031540701112926944,
          0.02426423052176906,
          -0.00957598839376418,
          0.02725126263751991,
          0.021985707509331404,
          0.040258682136790507,
          -0.0392774618208128,
          -0.022687066418678074,
          0.015085729840988582,
          -0.0031362120723816256,
          -0.033767128344031234,
          0.021110464143901556,
          -0.008776684249525008,
          0.01696897710894601,
          0.03185714186895604,
          0.02382628517216586,
          -0.04234751001166461,
          -0.023588712943942696,
          -0.02662544761048857,
          0.01967950498648013,
          -0.046248633640531944,
          -0.010857330758355583,
          -0.04240762337796317,
          -0.006079598584042087,
          0.008176569620419866,
          0.04472461546827094,
          -0.043650340654747995,
          -0.04179833515451039,
          0.03149798144570871,
          -0.017333433367350506,
          -0.0009756723610471041,
          -0.039873709475780034,
          -0.03350947306324971,
          -0.016328663497302647,
          0.029648423375147115,
          -0.02376058332031081,
          -0.026596318744087136,
          0.01114145323280366,
          0.03238519293784104,
          0.020540210421691893,
          -0.01903129286374041,
          0.01955111040052622,
          -0.003960720203635288,
          0.037101790153588735,
          -0.013961758126353535,
          0.00951885516702522,
          -0.03900477867474967,
          -0.03783004010073073,
          -0.0036904708332200008,
          0.0058642745108992075,
          0.028859034424709013,
          0.03660288122851751,
          -0.0416270343666699,
          0.01837799855622205,
          0.02527682141438955,
          0.02429702673603141,
          0.031655227505881435,
          -0.022388871272623196,
          -0.024476820049134346,
          -0.015516630154851488,
          0.008446804453798808,
          -0.02460097395110538,
          0.01546654794398199,
          -0.01192897765785648,
          0.024098021738110806,
          0.056060034983496064,
          -0.0023234804723717803,
          -0.023961921060258067,
          -0.03391301923297908,
          0.008175095675188326,
          0.017645180056004288,
          0.015307135260276874,
          -0.01434924906712788,
          0.004045854953766845,
          -0.03786488551159479,
          0.0391229844611479,
          0.012036409782158945,
          0.024316910245753453,
          0.039111111009436476,
          -0.008267518274223203,
          -0.004923295235683753,
          -0.041404126271076376,
          0.039680233303778005,
          -0.029833219445358963,
          0.0009119479642711503,
          -0.007519199453382456,
          0.029007340406625497,
          0.020479464662399388,
          -0.010146426542460773,
          -0.0004919630591584568,
          0.04682781156940348,
          0.04794922542936874,
          0.05575819699081602,
          -0.033356709769990625,
          -0.02145828986129688,
          -0.07291353822948823,
          -0.06878442788193284,
          -0.07664991990375711,
          0.013919958351450582,
          0.03783688197971841,
          -0.0010083147612301188,
          0.011231459002103183,
          -0.04009694792776706,
          0.001907243866913463,
          -0.009757164307175494,
          0.03444186852115181,
          -0.01365221955379868,
          -0.0069252923830594275,
          0.05076077553384251,
          -0.0001226832621149775,
          0.06797819831600949,
          0.04118781172669528,
          0.052194227261651065,
          0.05383007033890253,
          0.1221259380841083,
          0.06941764900221092,
          0.14140118307974242,
          0.08256423239811428,
          0.0275542393944931,
          0.08844984542387367,
          0.054849852221524775,
          -0.025859955063141427,
          -0.07923112186540827,
          -0.06442459194552434,
          -0.004415807863564878,
          -0.07147040443808979,
          0.04910185680482249,
          -0.03489445290427889,
          -0.010969383614495388,
          -0.025291951812912345,
          0.02271770672242869,
          0.01925066372189445,
          0.01993545587704461,
          0.0056822087006952035,
          -0.036079509233220945,
          0.04405401177512112,
          0.043716547455783836,
          0.0012051722938205616,
          0.0626144558592779,
          0.028404572893146747,
          0.08283518278085221,
          0.10061397214669897,
          0.12019480184906395,
          0.10677768814625595,
          0.1702826052018641,
          0.14062806760601024,
          0.01884555446822485,
          0.05263215366458854,
          0.07321043606370288,
          0.1510154777794784,
          0.1479076266303559,
          0.0626555289504833,
          0.15582873887977847,
          0.08734855804488524,
          0.07701379649366458,
          0.064114727429015,
          0.08124905811116925,
          0.03160093181818259,
          0.05677658936660471,
          -0.022324496789675408,
          0.042313296628820066,
          -0.03379631854042329,
          -0.0011746574658648681,
          -0.0427646960737965,
          -0.06095468347377175,
          0.04967050822013578,
          -0.0005887600405234628,
          0.11640853215232728,
          0.06627036791992212,
          0.15426388574698005,
          0.18794882607771804,
          0.2616287597085237,
          0.13569591141568113,
          0.13850152074988858,
          0.1472068263042838,
          0.14479806165240047,
          0.10505153239744291,
          0.14153171354234312,
          0.27640664779305524,
          0.2674258423751573,
          0.16046876427272777,
          0.1442668352581431,
          0.1301252375119722,
          0.14102396212560342,
          0.16538314155970524,
          0.09304596209826024,
          0.06987731389330819,
          -0.04217074612345649,
          0.006318977460776826,
          0.030845774737680794,
          -0.003247277660016535,
          0.02300351252924311,
          0.04009235739725826,
          0.08577310141718791,
          0.01591663449666558,
          0.06572336108368391,
          0.08007148652980267,
          0.06284803039358504,
          0.1430235505928262,
          0.2525538429781478,
          0.1278735736539867,
          0.21422549395887217,
          0.2565871588429462,
          0.3323556755006269,
          0.20325420423349883,
          0.1769024686722274,
          0.2238303467042737,
          0.27368794097927196,
          0.3233225026388057,
          0.15850850222588156,
          0.09004669086716158,
          0.17291941946368664,
          0.18371757777252076,
          0.13879473600199763,
          0.01972986635796314,
          0.05370424075512275,
          -0.019589147610599763,
          0.013654826756286265,
          0.011748521334730994,
          -0.01322836683260304,
          0.02886679005576581,
          0.07427962755220774,
          0.131607567167973,
          0.09890814078163161,
          0.08882670139506894,
          -0.009653051752254891,
          0.02217597224753776,
          0.016481178158096785,
          0.07118479687384986,
          0.1251543858685522,
          0.16480392560813373,
          0.23106289883961081,
          0.18491310098368727,
          0.03626583531756877,
          0.07254129592947961,
          0.09375563263196436,
          -0.021012844138853494,
          -0.015559986521618272,
          -0.021839548728360556,
          0.005351332162707584,
          0.05719454878091812,
          0.08191464437909286,
          0.07042637217015074,
          0.026179252476672736,
          0.03568485805733184,
          -0.0159363025191642,
          0.02802377969495761,
          0.02742231675628563,
          0.08410538569993868,
          0.0038892956767191678,
          0.0811534180224453,
          0.040492517119141425,
          -0.02463809432502338,
          0.001248507715016557,
          -0.050944969803733246,
          -0.05855334469202239,
          -0.06185348333908615,
          0.06497933616191183,
          0.08911468923893548,
          -0.014993015015629383,
          -0.03794826441685647,
          -0.017908915368519802,
          -0.005638883111676064,
          -0.06727212593207656,
          -0.0741364343660926,
          -0.1352274359068701,
          -0.09789893744797463,
          0.008726982373803708,
          0.02895974606080039,
          0.04612133063560353,
          -0.02154972262243655,
          0.001926570450995683,
          0.0106724427413912,
          -0.04501491788002639,
          0.018474977461157994,
          0.07462484337759326,
          -0.008347339697090008,
          0.028522612354200085,
          -0.009889478224499086,
          -0.09583672576579828,
          -0.044224571775562785,
          -0.1356701671383401,
          -0.14145548491524254,
          -0.13953879043891787,
          0.001447867470516434,
          -0.024242499946161518,
          0.033908995661529336,
          -0.11332158982106022,
          -0.1051177127829644,
          -0.1765677951050244,
          -0.14543582843592584,
          -0.19608416863595368,
          -0.14913438308760582,
          -0.16584637284001133,
          -0.12484698012261308,
          -0.0870539963584192,
          0.020903070134953405,
          -0.001938492005434485,
          0.00864967429607685,
          0.02168240973728472,
          0.02258117304975152,
          -0.013589019330197183,
          -0.030708648254703413,
          -0.031152383010275068,
          -0.06230167184071598,
          -0.02295756727284159,
          -0.06493188051776108,
          -0.11850467984084385,
          -0.1335741796792113,
          -0.19041060078689553,
          -0.1740542206773054,
          -0.036811161797193195,
          0.018671122041470343,
          0.09397689694476066,
          -0.05128299812158913,
          -0.10197648565963319,
          -0.19334227351277314,
          -0.13743770469242997,
          -0.22419371189505716,
          -0.19609700100989386,
          -0.11980546423033006,
          -0.20553116402013244,
          -0.12116273561656558,
          -0.010220608148963127,
          -0.030015481052104893,
          -0.023603878175310518,
          0.0366089775744533,
          -0.0072822609114099116,
          0.02950209732071806,
          0.0027248262338521244,
          0.01690450581655372,
          -0.06163616983272581,
          -0.06113290279733874,
          -0.04504242910576366,
          -0.1486743098752395,
          -0.1415164660168202,
          -0.07925326372136539,
          -0.1342749843359028,
          -0.08380200202541259,
          0.03552010251042033,
          0.07643933080461085,
          -0.0024586902798698703,
          -0.10067983685944865,
          -0.09178881700833115,
          -0.16263953350539695,
          -0.05532315617920797,
          -0.07535736612661119,
          -0.21808896239360623,
          -0.1612037169189609,
          -0.17144543454192437,
          -0.11282168608879603,
          -0.11721154268489092,
          -0.0487865426752843,
          -0.0007708511696170771,
          -0.0005505867985558744,
          0.04425473510730609,
          0.021855273816843022,
          0.04610057237133338,
          0.0009706061583447862,
          0.016940571746363903,
          -0.10642455225549025,
          -0.137166629680813,
          -0.1334711975796669,
          -0.04489093663765018,
          -0.1317595823859904,
          -0.07307628652395898,
          0.009975397207535304,
          0.09371935233255836,
          0.15827773010778295,
          0.11366412002277865,
          -0.05821983153712515,
          -0.19774791837478733,
          -0.21735077382326093,
          -0.0549721770169112,
          -0.03227327992373229,
          -0.2122194030209149,
          -0.2226727666964642,
          -0.1871262086022502,
          -0.13929831726351974,
          -0.05676059132477076,
          -0.0543707505286387,
          0.013900955253977332,
          -0.014023337571317167,
          0.014108192293294798,
          -0.02973070980399295,
          -0.03748411191086558,
          0.00017528102893991213,
          -0.023194684274753435,
          -0.03811636941807627,
          -0.1283500783035336,
          -0.17121493677384467,
          -0.12584940671307393,
          -0.08026098995963525,
          -0.009686034853137663,
          0.005707604694371756,
          0.03242835715662787,
          0.005756892356759175,
          -0.0534684002752942,
          -0.25252428663923093,
          -0.3065568753809146,
          -0.28037078257022974,
          0.03449622898344566,
          0.10462358833861012,
          -0.1501312930953239,
          -0.1913931441582211,
          -0.15298441091033527,
          -0.12265522163019509,
          -0.0709802083119234,
          0.0000656899333113489,
          0.0060317662523620506,
          0.011314196696212144,
          0.0006575750202527539,
          -0.02775526175382121,
          -0.017392127708619143,
          -0.01761283355514995,
          0.04383130455646198,
          -0.021883211978792536,
          -0.10516932606365569,
          -0.06744801173699344,
          -0.1732530777564555,
          -0.20303526418295903,
          -0.1639579866579539,
          -0.09571987163353188,
          -0.1216054720364658,
          -0.023940413587463072,
          -0.11016442096939327,
          -0.21968378209065803,
          -0.24502057998950702,
          -0.06207454496393118,
          -0.005029302476424018,
          0.08058527852867997,
          0.033102063375975016,
          -0.027232953620168303,
          -0.009683370082202434,
          -0.023748827960366273,
          0.026021547678645774,
          0.0022010378273965036,
          0.010382174718725769,
          0.004596576464840027,
          -0.015221267446758356,
          0.02069050730053109,
          -0.01793664283375483,
          0.026709077377892312,
          -0.03391893579046262,
          -0.00944426525404167,
          -0.14900358680464992,
          -0.132309257811886,
          -0.1434543513856291,
          -0.21495811398315595,
          -0.2246799283965291,
          -0.2741897115606002,
          -0.2801818286550802,
          -0.15784894011482645,
          -0.26481928520876974,
          -0.25329632191643725,
          -0.3090314941013565,
          -0.0970450482469879,
          0.06540116316679175,
          0.11653757523324876,
          0.09703933135811081,
          0.015313778226652624,
          0.00944179091694544,
          0.04071999446108998,
          -0.007914925868715806,
          -0.04518277913316075,
          0.02763756611071483,
          -0.02062033750460425,
          -0.01814139791558251,
          0.015311007825219406,
          0.01609952715068479,
          0.0016282077189825046,
          0.07259526266259571,
          0.019951897187767062,
          -0.041011288904285785,
          -0.1355953805202277,
          -0.18271371037683604,
          -0.3316958523486427,
          -0.4306588232475357,
          -0.5216524648093115,
          -0.4648879296019168,
          -0.4270377725947611,
          -0.43821207855996336,
          -0.33927134274120246,
          -0.16721688637835821,
          0.029732786307898388,
          0.19167141568190635,
          0.1653889589237729,
          0.12988980915895187,
          0.13012866012808005,
          0.0851801621524658,
          0.0439735658638773,
          0.053966911849913375,
          -0.04937568265595579,
          -0.023709132019210617,
          -0.03369777304965763,
          -0.030944207230422092,
          0.040491332688901115,
          -0.014550487502924906,
          -0.04351732226503697,
          0.015496976463839419,
          0.15476843129150952,
          0.06060265115633676,
          -0.005416869116779815,
          -0.12995047238932614,
          -0.30249122413880963,
          -0.3740921834697614,
          -0.44225622075470816,
          -0.5422119264100738,
          -0.5069685872641034,
          -0.4360705481326983,
          -0.42744337607616156,
          -0.15320486490527963,
          0.051843082399657445,
          0.214817339077007,
          0.1560017736628893,
          0.15201481341761586,
          0.09502428808239871,
          0.0977971931926922,
          0.0596540078892339,
          -0.009916429951566434,
          -0.019066906772764902,
          -0.030049832973417512,
          -0.02319027593350648,
          -0.018327872205167507,
          0.02758796239764104,
          0.03615074868715924,
          -0.022765172796048238,
          0.08171010086229194,
          0.12692274325269015,
          0.20994705312067055,
          0.08888032089443264,
          -0.046920194469970554,
          -0.13079905906205896,
          -0.2278907325945274,
          -0.2842578236812823,
          -0.32775475395096115,
          -0.35016693524604536,
          -0.2834179034826983,
          -0.22010793769091638,
          -0.10562171664868363,
          0.1341061133882382,
          0.20316414131369273,
          0.14709844429912738,
          0.10544852252791179,
          0.1279148864259327,
          0.17540142168955067,
          0.0602830232284644,
          -0.04887037201128999,
          -0.08574185829984347,
          -0.012906500692456399,
          -0.03163137892317827,
          0.006386875382283131,
          0.021521499043761994,
          -0.02166492032283276,
          0.0252441881150356,
          0.05869751932300109,
          0.08223833295852322,
          0.20817139082673503,
          0.18603135295476317,
          0.0997548964063527,
          0.039351990388809155,
          0.0036741743078741195,
          -0.06394046718947516,
          -0.02965069757796934,
          -0.0919604892154369,
          -0.008304665844286754,
          0.05124324889322699,
          0.06543781474951782,
          0.17726032812100415,
          0.23759065472844523,
          0.09604008178800715,
          0.12375268216968695,
          0.16719410374781027,
          0.08116725102184505,
          0.04219204554665454,
          -0.05457769050421148,
          -0.032396051155226945,
          -0.02580342273270034,
          0.03423127677130621,
          0.003283360484929917,
          -0.02364706122445052,
          0.002181128013532778,
          0.03493968989740213,
          0.05476603993948942,
          0.04320127607088337,
          0.13879987550992243,
          0.2600317708215015,
          0.20978226288182805,
          0.18259311098396502,
          0.09770494039563524,
          0.12808880043752374,
          0.11904719579985241,
          0.14436111773806173,
          0.09044697681325654,
          0.09603375823839277,
          0.07216287905166582,
          0.016840782991746822,
          0.08146682076954263,
          0.07585192834849566,
          0.08552294778198699,
          0.0630097595374906,
          0.1053822608558708,
          -0.03564886165942906,
          -0.07361507845056753,
          -0.01067398649140743,
          -0.014340740383741585,
          0.04283703351934157,
          0.04116835884178384,
          0.04315130418361845,
          -0.041707986208548306,
          -0.043228574164995384,
          -0.02235106518695459,
          0.03299939726304811,
          0.04941059849465129,
          0.1850206197913483,
          0.24973357844636496,
          0.1616835012299923,
          0.19897960794341427,
          0.10639794831339199,
          0.16150507462393887,
          0.10679502136762013,
          0.08405437047130022,
          0.07554375990731646,
          0.0620280332618226,
          0.12446117832351597,
          0.1523759169559914,
          0.03219342865069724,
          0.05930257686728969,
          0.014763125909886217,
          0.029579348651471427,
          0.05648393078384506,
          -0.02546180424864596,
          0.04077644762766742,
          -0.021331434294193142,
          0.05165800809678897,
          -0.03159560846792834,
          0.014271349291633434,
          0.03806882130335714,
          0.0020873160499544382,
          -0.039691540574331004,
          0.0026212631590676943,
          0.06403992488710686,
          0.07658791814855352,
          0.12072249579982194,
          0.16542965788363045,
          0.19190901715387887,
          0.1507036842736496,
          0.19690234919212993,
          0.15092804931404977,
          0.14223686892808549,
          0.012545086112245068,
          0.08112261019979457,
          0.15889357047869043,
          0.050765598778630926,
          0.06537582062516416,
          0.05305122659857496,
          0.04229877371966884,
          -0.012452659030825894,
          0.05024496308677747,
          0.021215135045656586,
          0.04717566125624953,
          0.043831481076060996,
          0.030315158076839727,
          0.023479378382586204,
          -0.0030938552664813053,
          -0.02805673580609579,
          -0.047326511909650114,
          -0.02296164827343458,
          0.03377342599398136,
          0.04174051872517059,
          0.03795214817434873,
          0.15720548489943284,
          0.0940576631934331,
          0.01649034702317901,
          0.04199340277778464,
          0.07005328928326872,
          0.16307401282704706,
          0.1725362554735595,
          0.03533580065782241,
          0.05998600918535772,
          0.08868185027459462,
          0.03358259985757723,
          -0.010262195309545101,
          0.035536572735679624,
          -0.048310605941032356,
          0.01823324735059977,
          -0.0017497393577631576,
          0.052739443789443514,
          -0.03390300634985029,
          -0.042150692161595914,
          0.007986418188303987,
          0.02725700821313064,
          0.04194114769522563,
          0.013757306774602424,
          -0.04090957277738255,
          -0.005476034998045353,
          -0.013738332947527023,
          0.0474203974198635,
          0.010599553602772215,
          0.005398532698076228,
          -0.05521490944015345,
          -0.09615672922061126,
          -0.026524169587862256,
          0.08722522693223532,
          0.11910852494236239,
          0.07537844274314534,
          -0.009535852758849684,
          0.013574138949108458,
          0.028688804237490515,
          0.05234782649930622,
          -0.05224126388791444,
          0.0009578059964953942,
          0.030981627266172384,
          0.006066123743052241,
          -0.026119231084566666,
          -0.024341612965465824,
          0.03781295347891852,
          -0.038529809844910515,
          0.010147892916188322,
          -0.046476972885206115,
          0.005908387449638015,
          -0.026463744637763947,
          -0.042771180241587096,
          0.040652582934599835,
          0.03897842275626472,
          0.03902823991773248,
          0.03738352296429614,
          -0.00935191440289821,
          -0.058996830725751376,
          0.009350479696788722,
          0.0018985604476978175,
          0.04368415687558464,
          0.05142322894790833,
          -0.041419353429682476,
          0.025652191741694034,
          -0.012000206841893749,
          0.005588452110413425,
          0.01504927889274635,
          -0.021856486348095845,
          -0.029746322094439927,
          0.05198761360201559,
          0.028641987014212767,
          -0.0443273154297638,
          0.02698364217196731,
          -0.04230195208370171,
          0.021352718232193747,
          0.00530159408927202,
          0.04988890872133262,
          -0.04784556652737899,
          -0.01889721798173839,
          -0.05019248515573529,
          -0.049938099043848834,
          -0.04035533047239178,
          -0.044141091658133874,
          0.00004400631682466223,
          -0.038920174595433586,
          0.0023146521232940164,
          -0.04710394583684771,
          0.03190804533450394,
          -0.00959748255189671,
          0.022591323650436042,
          -0.006632392515291706,
          0.007052461255762973,
          -0.0201290074227809,
          -0.029405934552830946,
          0.050195711587245256,
          -0.012727439634737112,
          -0.0280823813519792,
          0.05043313588175505,
          0.03729028057823452,
          0.020493157647145765,
          0.00009542183450308569,
          -0.009063875805998624,
          -0.023469167664729465,
          -0.02310437961336224,
          0.048945953934216115
        ],
        [
          -0.03537851474645575,
          -0.01528246518731593,
          -0.03528909445325607,
          -0.005499019097246323,
          -0.031500369212509184,
          0.012590972000566372,
          0.020643780578739248,
          0.038135947205426665,
          -0.03503781370806229,
          0.007076086633063198,
          0.011973837273820785,
          0.04139257530688219,
          0.02991220531306696,
          0.0035070834714158432,
          0.0019058537703122611,
          -0.0040431534823632855,
          0.04260686456635155,
          0.010496985930205434,
          0.03576310224342826,
          -0.03373589798235162,
          0.03788139552936167,
          0.020954491851495238,
          0.0035068811186889414,
          -0.01578916782150799,
          0.03785943028480004,
          0.0015268484157710156,
          -0.04127594657569956,
          0.022090549787766645,
          0.010103806466008475,
          0.002465333634956092,
          -0.03995693414827477,
          0.02593126235734909,
          -0.010898575964829127,
          0.022912702177412477,
          0.033425247594533636,
          -0.019575303410760126,
          -0.019287170548306736,
          -0.047155904696596564,
          0.04990135953917356,
          -0.04685413371884393,
          -0.040864067816620164,
          0.015522199165854492,
          0.009322511496213402,
          0.00011364825965645239,
          0.02136206884215058,
          -0.019400878630459202,
          -0.03714852311064094,
          -0.011396483185969338,
          -0.0009985040108138386,
          0.007662845582212886,
          0.0004252713227332083,
          -0.026001938628064807,
          -0.0077970366812251295,
          -0.029373422475760212,
          0.004509578206452915,
          0.002323715079356026,
          0.02555038058627561,
          -0.024580270632795942,
          -0.0009847191115635624,
          0.00782100628125475,
          0.00942051275126114,
          0.017847945940462795,
          0.03775603776910637,
          -0.006587870680118559,
          -0.03905566866819082,
          -0.033982903307137366,
          0.014871751130512189,
          0.016095862291879214,
          0.024705853104711625,
          -0.010340158753638569,
          0.02996855518338284,
          -0.04114612211345508,
          0.00915169144160206,
          -0.005291956863844331,
          -0.013793424902422502,
          -0.019274339299669388,
          -0.039884856585881104,
          0.024357224452223138,
          -0.042616534022614026,
          0.011709973285474823,
          -0.0054005909639757415,
          -0.03838295497400523,
          0.04222889675624108,
          -0.03560755044421162,
          0.024581046828385297,
          0.022317733332505602,
          -0.037928056169625225,
          0.04141762748207053,
          0.02541057841446394,
          -0.028685432604353075,
          -0.010457098384971424,
          -0.027139756066244344,
          0.034406869680686486,
          0.0031966103219625737,
          0.0496095542857348,
          0.04740647999166058,
          -0.02762121010264156,
          -0.032695351436581165,
          0.041302246219953244,
          -0.00311599880770929,
          0.002845938796243717,
          -0.005089572071486192,
          -0.011196241799685315,
          -0.010719170596365374,
          -0.038939953133585274,
          -0.030397846593126113,
          -0.008341559694457544,
          0.026788492538383925,
          -0.025525203885663258,
          0.028884083188286502,
          -0.03035265780632119,
          -0.004936075891132788,
          0.011917320882605923,
          -0.028064938148355055,
          -0.03527119828059804,
          -0.0022847036886439755,
          0.014899247813839701,
          0.012161200287968923,
          -0.00522221188445266,
          -0.0004814508167477924,
          0.03951582152286255,
          -0.023091311161539802,
          0.034492300885794955,
          0.038556190162103404,
          -0.030057135857975828,
          -0.054323719155313144,
          -0.03310495681396838,
          -0.01963445491355981,
          -0.011584206109466016,
          -0.0353004218146225,
          -0.039046586335838504,
          -0.03928832727623591,
          -0.01361463805663387,
          -0.03711025852763577,
          -0.022830386356759987,
          -0.01882258293113968,
          -0.028040702492388596,
          -0.030851512993686516,
          0.034177576372270896,
          -0.046153063935518115,
          0.0333002013920437,
          0.010602572867690412,
          -0.02431822522220138,
          0.012712061161147033,
          0.0117993139073426,
          0.01776246692997578,
          -0.0059409501400044685,
          0.03745899679656729,
          -0.018112201212837617,
          -0.040084545404676805,
          -0.006384293526374058,
          0.021525215065985388,
          0.03950125996937343,
          -0.005504580957603232,
          0.022281176259291897,
          -0.04206171689744962,
          -0.027732052487507555,
          0.012548999833585376,
          -0.03804439687227722,
          -0.04740966325367974,
          0.03761422417546169,
          -0.005526619896665855,
          -0.010401892581158702,
          0.037686162545224305,
          -0.0008731084704470368,
          -0.007864963832050193,
          -0.021958250944246128,
          0.04571593807634716,
          0.048570199849402494,
          0.044706077098523665,
          0.004676283228030878,
          0.03383268040587794,
          -0.025092020914420848,
          -0.032367431883764744,
          0.005748023651371904,
          0.02784518499227584,
          0.0081817251385591,
          -0.00045922320414284643,
          -0.052188317720436785,
          -0.01443989643612055,
          -0.02226858460268463,
          0.01797594135056967,
          0.006653926863772453,
          0.016359672648485108,
          -0.02775128218508016,
          0.024360389648188176,
          -0.03351678965497415,
          -0.036695394870351956,
          0.04142199005585183,
          -0.01968557132585977,
          0.00414994440430528,
          0.0011453850065379096,
          -0.0182180371891733,
          0.021414199706656662,
          0.045517031979189326,
          -0.0324506600400059,
          -0.008799711465135312,
          0.013574402868429569,
          -0.001893970872994437,
          0.04648976388371188,
          0.0034802298343897284,
          -0.020953415918653864,
          -0.001391991899031629,
          -0.04287675938602034,
          -0.04803577222358944,
          -0.03902437631371147,
          0.04142688047400596,
          -0.04671182934504162,
          -0.04653503457482343,
          -0.049799620781746635,
          -0.021755209821863405,
          -0.04416653248765608,
          0.0023176252371220796,
          0.014761437509077232,
          0.034280951814957134,
          -0.01295957253584094,
          0.003659832778422448,
          0.03957763754554524,
          0.03367776038103762,
          -0.00847785237095967,
          -0.039520987234716795,
          -0.010031293266730978,
          0.045137523055630804,
          -0.04674217219737389,
          0.022704233451389673,
          0.014165050958464548,
          0.006025157767113119,
          -0.04099920687632662,
          0.0195249037531757,
          0.040823691709611885,
          -0.022896610869195196,
          0.04563768679186787,
          -0.04657491055527726,
          -0.00045438339170181106,
          -0.044380729238922924,
          0.006753948394065792,
          -0.04559010413562174,
          0.02762315136325545,
          0.025732258354312268,
          -0.0034709946914985358,
          0.020984098067527848,
          -0.03171297973921531,
          -0.033172176855922754,
          0.03239521718565072,
          -0.04825881307247498,
          -0.04945136923186237,
          0.025778773819597627,
          0.003665504589635367,
          0.01926693551781246,
          0.029963387429985076,
          -0.024518890240086088,
          0.010658180183790802,
          0.0275697362299705,
          -0.006018363072041862,
          -0.031732463395288284,
          -0.009435678218638097,
          0.023804839869060047,
          -0.02694318796661989,
          -0.04862193371721828,
          0.02969085076648437,
          0.02527103474602175,
          0.01484727426545959,
          -0.050379200543168086,
          0.029240039758087942,
          0.020153151304712243,
          -0.05638049584668396,
          -0.031455877720022785,
          -0.014491153218808823,
          0.023565332723978955,
          -0.013564167561614068,
          0.003626327646590188,
          0.02588467921650028,
          -0.023490554658137354,
          -0.04320128082579297,
          0.03677916816316578,
          -0.046395305058126994,
          -0.029283624080861017,
          0.05067591930259277,
          -0.03398543783927027,
          0.005332869152081939,
          -0.03929104164325992,
          -0.024807107407190367,
          -0.03779599935309241,
          0.048480262358945245,
          -0.04220816794371345,
          -0.02938973197921044,
          -0.017249409824329615,
          0.04803916086366627,
          -0.03695955921742419,
          -0.033302366398210825,
          0.022543342990425663,
          -0.028297723699155994,
          -0.02956482957843305,
          -0.02998518143319752,
          0.007270759909759242,
          -0.02439760858024657,
          0.02102111318425261,
          -0.029225502882107724,
          -0.027053033336063924,
          0.035311185852173854,
          -0.05064027427614539,
          0.04290345154410834,
          0.01948501591945356,
          0.03295582755644941,
          -0.03152160908452685,
          0.0008691731450571346,
          -0.023410901471392985,
          0.030409216511149983,
          0.04687486388754197,
          0.026011854515808466,
          -0.04925319006401459,
          0.030927429607923846,
          0.006136556940141447,
          -0.0075521814502941325,
          -0.03779559367174371,
          0.008381610211782483,
          -0.010982966823848446,
          -0.0016514065432108034,
          -0.046364917193861384,
          -0.027174980302857376,
          -0.0041154237444705625,
          -0.051940990708140074,
          -0.03445609988693419,
          -0.014147567901412798,
          -0.01625301792106643,
          0.006265890018572233,
          -0.03171817097881041,
          0.041602467649822825,
          -0.03381401230181418,
          0.02666722380127327,
          0.004456774961045872,
          0.0328528148617779,
          -0.03466492099235669,
          -0.041066294189214564,
          0.004458555358952384,
          0.008826923371717426,
          0.005343336088035506,
          -0.03879613762372952,
          0.023218893536245167,
          -0.03583880963546281,
          -0.03229875868501299,
          0.04580997088430888,
          0.024910684094290397,
          0.0448412600568355,
          -0.005244132479816069,
          -0.05384423845726991,
          0.004846277836522429,
          -0.03654194731113704,
          0.04142005298743136,
          -0.008639290993593394,
          -0.019068842040244206,
          0.03856435399240285,
          0.005398691215218841,
          -0.048488271775096875,
          0.020018854850696623,
          -0.0009496015494228718,
          -0.004830605599969989,
          -0.038776952426856845,
          -0.04191077064140397,
          -0.001270600095721788,
          -0.04722043142268605,
          -0.01530969229441627,
          0.028680010392104792,
          -0.01103997006891,
          0.0012836527084563256,
          0.027240971634532176,
          -0.031039570828525553,
          0.048521668415288495,
          -0.03453737372524639,
          0.011952551888021492,
          0.006195221659366191,
          0.01722806549007926,
          -0.008464935077188963,
          -0.02811193454682191,
          0.03143984998379736,
          -0.03845556998279875,
          0.010742912716390277,
          -0.020907302809226282,
          0.026964361911579627,
          0.0246675381138357,
          0.0021566472209835767,
          0.001658724734850696,
          0.017395858498738447,
          0.04387358679140978,
          -0.01939960271150429,
          -0.005159909930663596,
          -0.006874986715060876,
          -0.030105204561326142,
          -0.011480458459247327,
          -0.033053121657963425,
          0.02327669240719159,
          0.04070844214021242,
          -0.04633840869964958,
          -0.04346531047993062,
          -0.0044937158117530065,
          0.0044779572564685195,
          -0.05010331091681354,
          -0.046961346996166185,
          0.04001284343700836,
          0.004381209209736818,
          0.03196188248294013,
          0.00920261381766509,
          0.03755175652045727,
          -0.05210673003283072,
          0.004655362876095665,
          -0.029436031961801813,
          0.025045043263665315,
          0.010405127932509951,
          -0.04303500174008402,
          0.03578154430140988,
          0.033434944527126684,
          -0.05512656179128913,
          -0.024800515908718093,
          -0.007553157127400449,
          0.014250702047472476,
          0.016986888884351247,
          0.024471631496237507,
          -0.0065126669690525165,
          -0.022365960810238526,
          0.020719434192222278,
          -0.033513429697932716,
          -0.008581110877279618,
          0.048744850098882485,
          -0.04657927438366273,
          0.03598469258974247,
          0.014955267378380845,
          0.006931215204576356,
          -0.025150538066914366,
          -0.02880356267926115,
          0.0032313169820074737,
          0.036739152550011124,
          0.0016058980788785935,
          -0.018624824724996915,
          -0.03560132050024396,
          0.010906488415214344,
          0.002087308583176558,
          -0.0591679521869987,
          -0.03855718292942975,
          0.03966814539799735,
          0.004338359361535834,
          -0.03179842678395052,
          0.03732578477685688,
          0.009011753998128771,
          -0.008697344168852787,
          -0.04154091714052221,
          -0.02040210513156015,
          -0.028789544312272184,
          -0.03855360817939538,
          -0.011675143138562633,
          0.019941453919629808,
          0.029088925139433196,
          -0.008813594497395813,
          0.04011600841516839,
          -0.039515936031060364,
          -0.023348481389326322,
          -0.02882455430635733,
          -0.050871305639953866,
          -0.004236397450688577,
          -0.055344150353221516,
          -0.051327976378392294,
          -0.04438922650310212,
          -0.059926254690955943,
          0.03710093031170656,
          -0.003526762091373416,
          -0.05273078778968973,
          -0.017161381127926506,
          -0.055181770367979346,
          -0.036500121759666486,
          -0.016524960618618405,
          -0.02207397261956867,
          0.027982628374422572,
          0.04446975988391072,
          -0.011536149894726334,
          -0.027835148823948486,
          0.03800830177444283,
          0.007617564650998379,
          0.03891619103966204,
          -0.039601655531963466,
          0.02943532530342766,
          0.0211571509373227,
          0.016449212506646018,
          -0.03024640542105734,
          -0.02926995494313394,
          0.04384782328506706,
          0.0068404377655357325,
          -0.01419882563703245,
          -0.01781816670512371,
          -0.01100861685490821,
          -0.016859633119912794,
          -0.006615386819814294,
          -0.04750391274771348,
          0.01925564145902469,
          -0.03803457883388202,
          -0.003936319200546729,
          0.04066032677486561,
          -0.017640674684407883,
          -0.0408263871946402,
          0.005462939085703796,
          -0.050361041382680855,
          -0.010369279066459694,
          -0.04005880178715649,
          -0.008779100559339286,
          0.02160733761473913,
          -0.02144789799693217,
          0.020403810781876603,
          0.030721081343192486,
          -0.02799504128284547,
          0.04458949277437179,
          -0.0045141434492356955,
          0.047959265804094216,
          0.010413605615812343,
          -0.037377107424013636,
          -0.007282802311736764,
          -0.006415809600944453,
          0.026187168176443558,
          0.020053954570088857,
          0.008281791130499904,
          -0.01406894882185892,
          0.026431632524310154,
          0.0364485260472795,
          0.037202005754625615,
          0.005637997064662496,
          -0.050712561322229344,
          -0.032709238779026706,
          0.020815042404074387,
          0.04205017074332997,
          -0.0048655817837583324,
          0.02162617584451463,
          -0.026332949355068348,
          0.04251727622758834,
          0.004472037955532768,
          -0.0170209421020541,
          -0.03915749582102254,
          0.0106364294505825,
          0.022474557039710852,
          -0.022857420108663318,
          0.021982189784803156,
          0.02267367890587026,
          0.03242382112832951,
          0.0470955428841323,
          -0.05152159888495611,
          0.004500310627165544,
          -0.028136240871178195,
          -0.05552255913147859,
          -0.051035852324753835,
          0.009220454091427382,
          -0.04456705068713037,
          -0.05362953530773781,
          -0.011987150626269653,
          -0.006743716197599733,
          -0.05028958515356523,
          -0.044557070788416725,
          0.03342522839812578,
          0.00950645642861564,
          -0.005764771388207167,
          -0.04043921177773436,
          -0.02633050649776318,
          0.03375010592801901,
          -0.035474968650248254,
          -0.023256501998386955,
          -0.0022275440472152765,
          -0.028386937734493106,
          -0.045590663827739956,
          0.017656697060226476,
          0.025409788514238675,
          -0.04529131500720329,
          0.018153604383745917,
          -0.028684869615590795,
          -0.04151151739266224,
          -0.0031321074383770502,
          -0.017053693734427337,
          0.029882821953253206,
          -0.0061501473781350865,
          0.041177540092133716,
          0.02475925927473592,
          -0.04732661693484941,
          -0.0001634248633629245,
          0.027646922227634974,
          -0.026230369174014844,
          0.032114143616496324,
          -0.04551364741515803,
          0.015352497329851979,
          0.041347411674773245,
          0.04533964159991303,
          0.038708462397448344,
          0.018480330332192423,
          0.009787832880187754,
          -0.04914669093479802,
          -0.010932723917885183,
          -0.0061762823747438635,
          -0.012167693315191127,
          0.042268734177553294,
          -0.025268587565320497,
          0.009417007505142749,
          0.0071225107469751825,
          -0.027658207657577254,
          0.011070608815708559,
          -0.006856717530572329,
          0.02530658561813239,
          0.0006372900570491285,
          -0.020064578533588603,
          -0.05297569636056356,
          -0.011957168310083467,
          -0.02983801478561353,
          -0.012461346143287757,
          0.02584077959422671,
          -0.04326689031604807,
          0.044940609922421125,
          -0.044511132950202315,
          -0.04750062539237938,
          -0.0019639887395733226,
          0.0030266634118558894,
          -0.010835493220354079,
          0.010761565141430923,
          -0.025696683631570426,
          -0.02024163921483193,
          -0.01713299314441153,
          -0.0035663406887225606,
          -0.0127891542069259,
          0.01110316484003704,
          -0.0023190423220955797,
          -0.023389712091658448,
          0.02381319024444035,
          0.0001223591673977848,
          -0.005499140846550357,
          0.010881575974768045,
          -0.025506796623278753,
          0.023188669913468365,
          0.00844264162714006,
          -0.041258431750132225,
          0.015517529681836253,
          -0.03869064022264844,
          -0.016652695789881263,
          0.04376528857827109,
          0.03920934141510869,
          -0.04053287065072491,
          0.04519151565358827,
          0.026321602457384356,
          -0.028633633684956944,
          -0.021315020571091723,
          0.02700737663365074,
          -0.004807582945800388,
          0.010809861875872873,
          -0.01975006564751759,
          0.019095670168778913,
          -0.011221988363782076,
          0.024925795828465748,
          -0.013905526083259264,
          -0.023575390845600713,
          0.03062389244864348,
          0.004952222475067296,
          0.0444785384462598,
          0.040251394800996154,
          -0.02348662322765353,
          -0.05537183142372368,
          -0.025447468726692804,
          -0.04647412168580863,
          -0.027134462906484767,
          -0.04692697712875564,
          0.030455675495279277,
          -0.031264236163215095,
          -0.05332322694882305,
          0.014744710467948893,
          0.04303872660606255,
          -0.04419756592349952,
          0.04250113332539307,
          -0.018762145867128033,
          -0.0007747856654196055,
          0.03223904447174038,
          -0.03165587757105745,
          -0.009917254660807564,
          0.01943975183736117,
          -0.05012390014459844,
          -0.015501033948073048,
          -0.02114544634472024,
          0.032867298487401844,
          -0.012307574350663444,
          0.04992713183387213,
          0.03837369444586136,
          0.04501247431831327,
          -0.04732032813507626,
          -0.04753693523978597,
          0.03965866908383182,
          0.0068038805534358536,
          0.014339946223307625,
          -0.047025327376807674,
          -0.001576468043911248,
          -0.03127498222200206,
          0.03295369244550043,
          0.03352559084338969,
          -0.011974459846049383,
          0.03306682249113258,
          -0.031550805191659884,
          0.020440941118797497,
          -0.019950269968924683,
          -0.03068308121355514,
          -0.03297282434922257,
          -0.027402879688486943,
          -0.011519342371908952,
          -0.006027081703108551,
          -0.010821751692617619,
          0.019995544500876008,
          0.011147110352678534,
          -0.016377079531260948,
          0.00766998946992921,
          0.014636314162937852,
          -0.018864246077360685,
          -0.050804147173904725,
          0.0049287628369889,
          -0.044967697280931154,
          -0.005873975652977756,
          -0.049358707998261246,
          -0.0033782800003374037,
          0.039295848729619956,
          0.0474210198284861,
          -0.04245554765139733,
          0.010701086908846176,
          0.03633995707490589,
          -0.01279140044912679,
          0.022592786518784713,
          0.0380680487782615,
          -0.023947920329061116,
          -0.034821084482162895,
          0.036338479556692595,
          -0.04742286344616462,
          0.02635682190176439,
          0.013101147857790024,
          0.004348530117594082,
          0.026424940978980228,
          -0.03705162662432863,
          0.03517178864033367,
          -0.02487360408029495,
          0.01627747643867549,
          -0.015799194324615934,
          0.036685562821495585,
          0.028046054091678145,
          -0.04222910262191056,
          -0.03209393340535136,
          0.04359380401650563,
          0.018425521607267233,
          -0.03627740905936606,
          0.043420431898435384,
          0.033690347921944114,
          -0.047359863370220426,
          -0.049421442206805145,
          -0.0046485453786979745,
          -0.030138686048627104,
          0.04788621030064187,
          -0.01921275239390984,
          0.019411155383085733,
          -0.010990746845002999,
          -0.03369392476340098,
          0.030158291983770773,
          -0.03979109266141811,
          0.02836333662804106,
          -0.0027857905840726225,
          0.007688671034355129,
          0.015782481076989513,
          -0.04997022829100247,
          -0.03817218723945503,
          -0.002623720755354295,
          -0.03442557828038471,
          -0.011468323646204736,
          0.029641390914436044,
          -0.043274319154766414,
          0.013547863052363333,
          0.025571358963981067,
          0.04607986391478011,
          0.03956008946581653,
          -0.004290953822307139,
          0.02780096852086042,
          -0.013933303322971055,
          0.02033541079697168,
          -0.02193739065117994,
          0.003887522301191057,
          0.047983382860025466,
          0.0003653161201828175,
          0.009411294122215988,
          0.028203669297370105,
          -0.025530123087853338,
          0.019817560030530222,
          -0.01109255762687605,
          0.046021084924757684,
          0.008089124391978212
        ],
        [
          0.011242129781142453,
          0.02500502338414001,
          -0.018189839859129635,
          0.04631487209234885,
          0.021654895082419134,
          -0.01631915037312759,
          -0.021253311031385613,
          0.011073885781793458,
          0.02269275959690667,
          -0.03887439592807511,
          -0.013493663087069164,
          0.03603340730010244,
          -0.032443487223980445,
          0.028096150928806015,
          0.028243121857025214,
          -0.018099987113542486,
          0.0413950028464119,
          -0.006575765336426513,
          0.004900763850423243,
          -0.031726391848818286,
          0.020710432620430087,
          -0.00635212069056473,
          0.00892986114020684,
          -0.02095008208248892,
          -0.04957800180697434,
          0.042626944988783125,
          -0.015611316579399926,
          -0.021067559871903008,
          -0.026718044315805003,
          -0.018363118809225205,
          0.010706406916958046,
          -0.03153827025470107,
          0.03704834132962875,
          -0.01420748191302595,
          0.032282902784605036,
          0.04281523424459049,
          0.007076539678404571,
          0.026742197094359214,
          -0.011587668344033807,
          0.0138414320276358,
          -0.05127255919903457,
          -0.01023659533622761,
          0.03358392169844052,
          0.042474782340241504,
          0.019025018938259704,
          0.002463569810332762,
          0.01086163542633362,
          0.0077482001308438716,
          0.004336325414033291,
          -0.03207222660053444,
          -0.03169457474452138,
          -0.001312239675462358,
          -0.011771291502748112,
          0.04571308684417534,
          -0.010561073532686963,
          -0.003730262501200174,
          0.006863078545815573,
          -0.03250760185238683,
          0.03306873609603329,
          0.028149580470004,
          0.03810600034229022,
          0.04455695170387338,
          -0.01570234470945601,
          -0.014560207122598052,
          -0.044621008520062504,
          -0.042889389641689465,
          -0.03242110813552264,
          0.038434662511441176,
          0.023351891558014114,
          0.005035757329828969,
          -0.025984143800165716,
          0.005688674660386563,
          -0.06822687200182385,
          -0.05820020665971975,
          -0.11100040411049628,
          -0.025614704316423917,
          0.001555671618963367,
          0.03096897808753809,
          -0.0303190867367174,
          -0.01648228209662988,
          -0.04491040505207204,
          -0.039113382908511365,
          -0.04901520470206095,
          -0.020836999626774988,
          0.016407670351508023,
          -0.012457265610239842,
          -0.016461472361784298,
          0.009889220691143138,
          0.02993260915770286,
          0.025787648172696312,
          -0.014227933927654963,
          0.048833786349942856,
          -0.036603351055530864,
          0.01947386377935587,
          -0.03860086094678543,
          0.03161882526802581,
          0.036216369700527086,
          0.12067481893204356,
          0.08495905323749298,
          0.04240923253973662,
          -0.07765176276090761,
          -0.17698044930525694,
          -0.09705332444929546,
          -0.044209593318654455,
          -0.05726473086461088,
          -0.015138616766054864,
          0.008171989677546435,
          0.008369258091995594,
          0.05229754378851707,
          -0.03139373502685568,
          -0.029787357102688677,
          -0.038546989554672326,
          -0.02061316403709367,
          -0.03187179522458454,
          0.023474248123489472,
          0.048713071755462814,
          -0.008269682609599706,
          -0.03988422247825746,
          0.03144462763399257,
          0.023859670137260574,
          0.08178782605893994,
          0.06711336716637346,
          0.11977823043614956,
          0.10615817501707529,
          0.15831033121583454,
          0.24109050141072133,
          0.09587309115922159,
          0.024357565046358578,
          0.028999446803266715,
          -0.026076427627672635,
          0.02471539144386601,
          0.1246817448857025,
          0.13150984731501145,
          0.036325248069153854,
          0.006605088732643021,
          -0.04311504937452974,
          0.022052739652023583,
          0.013605955739464848,
          -0.006165931011868522,
          0.03874467757610496,
          0.041429345439204096,
          -0.039107301009872183,
          0.03326386381839742,
          -0.010921528579869506,
          0.05295643773072774,
          0.022602469179593788,
          -0.034538720376998275,
          -0.005027684255554258,
          0.05394792440660996,
          0.0741863577362906,
          0.15392374840508535,
          0.2496934751057802,
          0.21625865437601055,
          0.14413514060351,
          0.12457459085407094,
          0.08971572944083313,
          0.041220226501146644,
          -0.13339477670287056,
          0.0015835051298485343,
          0.03972099347426006,
          0.10016826701811718,
          0.054992245746888914,
          -0.024098415976695965,
          -0.06649983437022487,
          -0.033665573974592175,
          0.030997499579150416,
          0.041283774851643175,
          -0.00669293571653024,
          0.04750575336540749,
          0.04356224904516285,
          -0.029861271680560297,
          -0.0006727175185996439,
          0.062326846276478456,
          0.01051240908569045,
          0.04674278306929524,
          0.051635166824337754,
          0.05995048035414145,
          0.13029828903683233,
          0.1432403540478787,
          0.11391012873325168,
          0.1271821852009913,
          0.06616973677507172,
          0.15056254156797563,
          0.11887236946190803,
          0.13370960258685677,
          0.028583089119492144,
          0.03182360605924449,
          0.1378144213669248,
          0.09008271090687113,
          0.040664653148193536,
          -0.0351447483579897,
          -0.11806257061299413,
          -0.034757364301203554,
          -0.033738292939528694,
          0.013466876514334732,
          0.026833686081477008,
          0.010545337956243519,
          0.040089838635849334,
          -0.027526067503248024,
          0.019071453766287695,
          0.01892017271805579,
          0.1480170986985047,
          0.08040787037567887,
          0.042201902322708505,
          0.17084994634640158,
          0.01929824042937811,
          0.07428684489797113,
          0.07623053462456177,
          0.08844358862735541,
          0.08846039536923762,
          0.08390776790595808,
          0.06863635900402597,
          0.01297399775513939,
          -0.02886610758105421,
          -0.026003557328158174,
          -0.02314347025405208,
          0.07867658810360668,
          0.0451889562431333,
          0.10542832947039475,
          -0.013307972763761998,
          -0.022214121247820164,
          -0.06779813662193018,
          0.009527151468177116,
          -0.04500772192026432,
          0.009337140099758338,
          0.035285715028094605,
          -0.03953610055302885,
          -0.007013442392382106,
          0.07559920052306046,
          0.17065188511535276,
          0.11481991385346674,
          0.02242049169369983,
          -0.07991882178948308,
          -0.02230993958745755,
          -0.12728859093036077,
          -0.12446959175079086,
          -0.08286937923575062,
          0.04133555141945337,
          0.09876699491596543,
          0.10055682726753928,
          0.005372511525832956,
          0.045477729941316845,
          0.041350382999533475,
          0.05537963491970635,
          0.03226792301095047,
          0.12334496098046924,
          0.1431115939935407,
          -0.08187831587255405,
          -0.024956785226614788,
          -0.014439093765510282,
          -0.002956485986981799,
          0.009440190480775679,
          0.005086257966598331,
          0.04334786909286431,
          -0.024221849978977857,
          0.05009729330070459,
          -0.0007935853154958497,
          0.10485055957082606,
          0.015015880115519803,
          -0.05559305360962279,
          -0.16406111791458133,
          -0.1772182627990749,
          -0.21419312851951242,
          -0.22943473606183123,
          -0.1291901340476577,
          -0.18292139491609544,
          0.13327521107630194,
          0.19208542956168487,
          0.1950633181205279,
          0.08649486756186991,
          0.01947688017084103,
          0.03780241162451512,
          -0.036631223738600734,
          0.047782793958753726,
          0.040889932095456966,
          -0.12721811996569568,
          -0.09294601516841383,
          -0.05457853330752092,
          -0.009185778478919344,
          0.02163387636321547,
          -0.045183386430575075,
          0.04809099140971046,
          0.0015450810983107547,
          0.05027768287664264,
          0.023534747491992813,
          0.040470191836544336,
          -0.08819449920645564,
          -0.24110462301093455,
          -0.1700767641684126,
          -0.20150539489951794,
          -0.16362945203112647,
          -0.28699497695351317,
          -0.17518743994821412,
          -0.22215056725035978,
          0.10823333894386623,
          0.21135118509596826,
          0.14439469051640816,
          0.07875895546097274,
          0.040030386858694346,
          0.1460297571581299,
          0.007460807356153482,
          0.006727715134474525,
          0.03884825369601006,
          -0.08941566875603237,
          -0.13169518468572214,
          -0.00008452818134611196,
          0.0013869134721989852,
          -0.01761424685838624,
          -0.028743805136604322,
          0.020253220302895513,
          -0.01877395323908857,
          -0.04703047596249709,
          -0.01846061060727642,
          -0.09494558057050861,
          -0.025364634554813886,
          -0.14712810064738496,
          -0.18693572025959893,
          -0.1621659101480221,
          -0.13173061429248029,
          -0.09875252447841902,
          -0.16371804815193963,
          -0.07322702350526109,
          0.31461170890979934,
          0.33907761964284716,
          0.36174198326335555,
          0.027274175472908686,
          0.15161819154977016,
          0.14278626002453612,
          0.05022955998491035,
          -0.04321308757989014,
          -0.03833857304836868,
          -0.0014782552359491712,
          -0.06377281002285652,
          -0.0007733968507762548,
          -0.030007929849368536,
          0.04386702657657087,
          0.03262680471235368,
          0.04286775818618703,
          -0.04220784834361445,
          -0.04696632850976047,
          -0.010954609316360046,
          -0.07766537834695653,
          -0.12353788626890662,
          -0.11196808518466972,
          -0.20049188193041642,
          -0.13682866759468104,
          0.036744339062779866,
          0.0010438061890085028,
          -0.07431034024628572,
          0.10636665999091427,
          0.43001576142286074,
          0.38277047077203225,
          0.2942086913202745,
          0.09792525700894222,
          0.1762204607739376,
          0.11931591643455138,
          -0.0063249457349450955,
          -0.12142210127887762,
          -0.08832055567326129,
          -0.0758391007656327,
          -0.05993271069778262,
          0.0030192155160050217,
          0.01961376174601579,
          -0.01515954334437882,
          -0.011489717255277313,
          0.016931533150414797,
          -0.030618369835888518,
          0.009017355514851826,
          -0.07491860138590829,
          -0.08872865559576873,
          -0.1146545727957693,
          -0.17218138056463048,
          -0.1158688116763374,
          0.03872049245365513,
          0.07677011625524087,
          0.14961811005482553,
          0.022263941110369945,
          0.2995257036798875,
          0.4977817412785462,
          0.4109307332377315,
          0.28134700376981897,
          0.16779511288563265,
          0.12011789534247422,
          0.0855201599817505,
          -0.017658193132392086,
          -0.15105717157239784,
          -0.11403090426704338,
          -0.1723334221981318,
          -0.0770055351413577,
          -0.029508968732410035,
          0.009563585473203096,
          -0.03602704392192063,
          -0.04617360696593511,
          -0.0022395353884893322,
          0.0239450240369982,
          0.02874328127226253,
          -0.04846615458718246,
          -0.07568839468006261,
          -0.18128731235857762,
          -0.10939910108901357,
          -0.08195640597188836,
          -0.007841720522646855,
          0.12787898951121734,
          0.09080165752937272,
          0.14927314014325363,
          0.4111812981925375,
          0.46656233567304006,
          0.25096654791135214,
          0.25670804879547543,
          0.2164138174112686,
          0.13408802033117134,
          0.0515033222089767,
          -0.05647253035201295,
          -0.11616187999039664,
          -0.17080313737204567,
          -0.1515815240277247,
          -0.059176415365789076,
          -0.011622981285022005,
          -0.01921745650119681,
          -0.04622924814507468,
          0.024196368673955873,
          -0.013913747368741977,
          -0.0004905331125907087,
          0.029352207784913337,
          -0.06910231451451548,
          -0.11509072132998228,
          -0.11538476081879148,
          -0.04428351967269465,
          0.06321101397819133,
          -0.1162487887329914,
          -0.05876286976010137,
          0.00781105525537764,
          0.1253514501261554,
          0.31312591633114084,
          0.4380206086918151,
          0.25371196019881226,
          0.21116190868363618,
          0.17159418523400968,
          0.11049172176484555,
          0.012916526385290344,
          -0.059234425090191944,
          -0.13986061114949813,
          -0.1887010769341386,
          -0.14753361197066003,
          0.028358716912621953,
          0.013806478103387296,
          -0.023468086236209048,
          0.023428714606817416,
          0.04246049774514061,
          -0.027258004427037012,
          -0.0474549774451051,
          0.02026088963561389,
          0.006693342356483036,
          -0.053779138676676705,
          -0.1590197123283242,
          -0.07437507708752092,
          0.06276393688125274,
          -0.06699624053152851,
          -0.10022978672039055,
          -0.10152826813561677,
          0.11276244792134649,
          0.37334811549006297,
          0.3707010418662094,
          0.2847655729097028,
          0.2814859226967301,
          0.10763633175713824,
          0.1630203645500343,
          -0.07001926911379654,
          -0.08207143734967186,
          -0.022306830904117496,
          -0.176436787231249,
          -0.07690558120614667,
          0.0058760005610431895,
          0.02763380972683006,
          0.03290258920276373,
          0.0330004513278787,
          0.007632049270770125,
          0.001287152607762182,
          -0.02054680267555549,
          0.017469889098916645,
          -0.01431275102900799,
          -0.06433402131422324,
          -0.014726415505895898,
          -0.04197568238336353,
          -0.06158179922213553,
          -0.13649450711014294,
          -0.13158257867345138,
          -0.06441226977934722,
          0.2611979445739178,
          0.3414196934642232,
          0.2577639516718826,
          0.28596640843376997,
          0.10899571593970606,
          -0.057515998868428606,
          0.07840760389155979,
          0.04754318691123488,
          0.01780387905705727,
          0.03152338640946129,
          -0.012468616914373235,
          0.02650790708845999,
          0.08688746877481571,
          0.007876280465103719,
          0.028058674375115396,
          -0.029142694775960536,
          -0.02152747877305125,
          0.04880779662287511,
          -0.02890275581727219,
          0.0005773437148348502,
          0.053522126137003315,
          -0.022531737701833414,
          -0.009683128084509485,
          -0.08490906400474228,
          -0.17580346775596156,
          -0.10902706740207517,
          -0.11924694643520761,
          -0.09340424794652868,
          -0.02407896745165742,
          0.04567514796847277,
          0.130981300520609,
          0.037933876284116215,
          -0.005172175031136612,
          0.03195500237264284,
          0.1461237630875757,
          0.03746244398668401,
          0.12467916330079715,
          0.15037536909654425,
          0.18609671670878455,
          0.09143085131804556,
          0.02014688430348362,
          -0.04089561418419359,
          -0.03925260692539609,
          0.05040481282027593,
          0.021936321788546514,
          -0.0070806525325493195,
          -0.037886363675667126,
          0.06270076330719827,
          0.08467787132429423,
          -0.005491857351432826,
          0.09643982775602461,
          -0.07707481728472988,
          -0.04258236728588625,
          -0.1450745083677503,
          -0.19137323828621394,
          -0.08509213207431708,
          -0.14982912614065322,
          0.01812715807345683,
          0.08695500563065751,
          0.03768122285054101,
          -0.00440926951000499,
          0.08937270256085625,
          0.08612350826784061,
          0.10807378806212785,
          0.12927509557483416,
          0.16999723745079134,
          0.17482842469556753,
          0.09897046740055564,
          0.02927593984565962,
          -0.010384389102374167,
          0.04174518374654208,
          0.017146365845787805,
          0.034356216240932165,
          0.02472118750904791,
          -0.0200162018043071,
          0.07146868133627211,
          0.08797738733816872,
          0.026058474990600176,
          0.020228011518174036,
          0.0021961200790412867,
          -0.017078573324653193,
          -0.04850210396285188,
          -0.05240339715613235,
          -0.09434880878654604,
          -0.12890096968678422,
          -0.14921555056409,
          0.005040874351741539,
          0.060517936347658216,
          -0.09431046137244276,
          0.0645727570867174,
          0.11655200888652228,
          0.10486856500531543,
          0.07978013273745067,
          0.06789035495046569,
          0.09792047846189525,
          0.08491874838904506,
          0.002028157021800616,
          -0.029730247991636455,
          0.026433727347494277,
          -0.043861185723410336,
          0.03214278814329524,
          0.03176752140276327,
          -0.015007207896059771,
          0.018405253433831065,
          0.1110522060509769,
          0.08339547230476103,
          0.007096951717703115,
          -0.016140838220246024,
          -0.005420403113835392,
          0.07294620965408494,
          0.06624630779136549,
          -0.11656665510681292,
          -0.1050771603246263,
          -0.08049082111934311,
          0.051810091782117706,
          0.052664807407900714,
          -0.0592650330837309,
          0.02424515881266269,
          0.1260065807852712,
          -0.06385616934312105,
          -0.08726290395900115,
          -0.049195210018934676,
          -0.04894677972260959,
          0.031486966780334864,
          -0.006190435503320825,
          0.015624017070646519,
          0.04268492296946711,
          -0.019784845150815158,
          0.03882889512138503,
          -0.047284092728221885,
          0.043070560900921546,
          0.0785072057564733,
          0.11323442831270765,
          0.09355607949815185,
          0.023328276635573363,
          0.037548080636878804,
          0.1415476752553769,
          0.1736009939115035,
          0.11903310176510101,
          -0.013659484251508093,
          -0.07398525611644764,
          -0.029542884124020667,
          -0.019937375569349228,
          0.003766496871488471,
          -0.03221852900694927,
          -0.025218211852108364,
          -0.07674984085776243,
          -0.016685006427040096,
          -0.005264726120700581,
          -0.021913246365734135,
          -0.013083983111691361,
          -0.03455897536614093,
          -0.01771249453167503,
          -0.012451928814376645,
          0.033013846683490576,
          -0.02238160573879122,
          0.009683588612115315,
          0.013014964799829434,
          0.03908332185810383,
          0.019028179230323888,
          0.03789138873385451,
          -0.007139229686851869,
          0.07484590044522514,
          -0.001619683273907244,
          -0.09028374697167592,
          -0.024101446111866025,
          -0.008727702385649247,
          -0.06666003086883111,
          -0.06225371870180471,
          -0.15389127465256325,
          -0.0690577613182622,
          -0.025689688408031437,
          -0.0110624404106913,
          0.04868624626032699,
          -0.03809946311600627,
          0.0340257292966822,
          0.0078733840349146,
          -0.041769132753171026,
          -0.02884975795708099,
          0.026825772437124293,
          -0.010907801622708393,
          0.013188648692303908,
          0.021554719475881202,
          0.041523183378634074,
          -0.008309357036434933,
          -0.0024263220956580725,
          0.029569012443264545,
          -0.01639574453974591,
          -0.012845132640524157,
          -0.05994243403939437,
          0.008309858504514687,
          0.0400083844195968,
          -0.07385702965901271,
          -0.10398948984716687,
          0.010629402999968925,
          -0.001656503530858264,
          -0.07408629567165607,
          -0.05206581315103396,
          -0.01390193418973531,
          -0.027879937374729886,
          -0.012938909002359146,
          0.06956707520506135,
          0.027395190087909343,
          0.032795319321633785,
          -0.00320172596608612,
          -0.07580763833564774,
          -0.004222526074685314,
          -0.005760168108363973,
          0.03435441468969889,
          -0.03843775482303737,
          0.0338625342165037,
          -0.04089563124591719,
          -0.03692498736273579,
          0.023566380312218527,
          -0.040330469084677224,
          -0.04744556055004695,
          -0.02448873451464336,
          0.005976632658046103,
          0.02438022501901566,
          0.05454608111452737,
          -0.011739903469508607,
          -0.030872968878326607,
          0.0018638152686237862,
          0.09366153830651423,
          0.06290320621709308,
          0.026548158317957704,
          0.04232261229622713,
          0.08229327470053585,
          0.08442372048883795,
          0.02195076577382027,
          -0.024663214690525875,
          0.026407383935115603,
          -0.01174651462419335,
          -0.020414439912254473,
          -0.022982352115558772,
          0.050643603358918855,
          0.04019488061824785,
          -0.00277006722723776,
          -0.021228854218991688,
          0.009632983332805739,
          0.008454227679361718,
          -0.027527561241498015,
          -0.02440388113860452,
          0.030339601547691452,
          -0.032560740591577264,
          -0.016441179493397823,
          0.023141984576676777,
          0.0433709368984235,
          -0.016409647019446683,
          0.04341703798903027,
          0.0800110097515693,
          0.09920847872232377,
          0.05421449615420383,
          -0.02857743049126611,
          0.05599536237203356,
          -0.037982757903209666,
          0.0006108304040787406,
          -0.029584558883987398,
          -0.0268305060076886,
          0.0012791008516493585,
          -0.054102826661079975,
          -0.031467894989487516,
          -0.03187376323681017,
          0.014301942017738873,
          0.039987798244868776,
          0.006324783301644188,
          -0.016906146928734152,
          0.04581829892670053,
          0.00584375913755271,
          0.018726998829311964,
          0.03588729468382751,
          -0.016010550498354086,
          0.0008938872280012182,
          -0.03588845760631385,
          0.02391841963869,
          0.012733277059851682,
          0.04755831258505981,
          0.03357771207274623,
          -0.04029895797058728,
          -0.04144399217906947,
          0.023780788683605,
          -0.03268367807258084,
          -0.012292439945857506,
          -0.054480833254989355,
          0.009969597685165962,
          0.008069054014828452,
          -0.014013355366478466,
          -0.05239484841735948,
          0.047982068136457286,
          0.02249829324532976,
          -0.026502991007311762,
          -0.03282838665531428,
          0.016693208229475242,
          -0.026906575262765402,
          -0.029016543886408123,
          -0.035801096651599036
        ],
        [
          -0.03298023111286766,
          0.04860905555268867,
          -0.0378118047037479,
          0.003589482358268473,
          -0.02053212763430055,
          -0.04904031774885505,
          -0.008722914898600668,
          -0.00999518472402829,
          -0.023804921764777227,
          0.001039963310026118,
          -0.004556764220438926,
          0.04167054242702237,
          -0.023076533558007123,
          0.010729194252416212,
          -0.015983750499640206,
          -0.0011975959094568936,
          0.009991304672427129,
          -0.039767707108564865,
          -0.0001276809713084143,
          0.04513867975985677,
          0.0021360508561570684,
          0.0407366097005491,
          0.03707482148123929,
          -0.0326637221760118,
          0.006913773605822694,
          0.04391058969280521,
          -0.019591538776596785,
          -0.046548296062350475,
          -0.042539243931607115,
          -0.041744153057684495,
          0.019592874127043514,
          0.03862079831043022,
          0.0036133930361998343,
          0.027210277681600552,
          -0.008984200378834547,
          0.041063986397927396,
          -0.0187611364125902,
          0.01637851990855669,
          0.03241897231556895,
          -0.05083134770006207,
          0.021523698791248273,
          0.04416435986355487,
          -0.025940818100191637,
          0.01425515471469905,
          0.04636283214009594,
          0.015557159420332404,
          -0.009994582695802856,
          0.023881729215753093,
          0.031271523588721845,
          -0.015706781279882974,
          0.02756551634011139,
          -0.00012335212941679016,
          -0.03634728086914229,
          0.05024406933346657,
          -0.013951106594758908,
          -0.014027278018528508,
          0.04986034790170565,
          0.038233986404670066,
          0.045759556966859516,
          0.024874331132770718,
          -0.012910269106877773,
          0.0026976010449778725,
          0.0236739474799071,
          -0.026221477187383255,
          0.011486124616754202,
          -0.005400730078285736,
          0.019256334512627687,
          -0.015661923581183235,
          -0.02302283379029924,
          -0.06947141608330253,
          -0.049152659290109854,
          -0.06158858322295102,
          -0.034233908538650805,
          0.026939050822139033,
          0.04328017036530371,
          -0.003155556322083876,
          -0.014607388555120709,
          -0.03897179363007187,
          0.02580500856063749,
          -0.00812705393239912,
          -0.0034867443508716997,
          -0.020527847291834423,
          -0.011786554690480516,
          0.04902787343944808,
          0.02945620761232503,
          -0.032254078849288624,
          -0.001176032923645,
          0.02454075992048104,
          0.01115150731035147,
          0.004081972232140533,
          0.043291160425836014,
          0.03359599012450964,
          0.024606797433919254,
          -0.005815566677932001,
          -0.015249611120681317,
          -0.09752047701678969,
          -0.052123995307428374,
          -0.09893247481284285,
          -0.0626514041812417,
          -0.05976266369640415,
          -0.015277344409993315,
          0.017058278194453116,
          -0.06139934158426182,
          -0.06769378876021345,
          -0.010532593727257636,
          -0.004681561418833247,
          0.004625944133742377,
          0.01891792196452912,
          -0.027122008271350116,
          0.04660366354691448,
          0.01846305222662696,
          -0.041809260893474136,
          0.011095087318602495,
          -0.015063773437236515,
          0.01659548055864578,
          0.0352662963342268,
          -0.027016102175456542,
          -0.04085421479891107,
          0.018335328872589884,
          0.0547409023579926,
          0.03380576669804052,
          0.05419406793027885,
          -0.023560265117202422,
          -0.07582014884116847,
          -0.041198013175530936,
          -0.08080349387238163,
          -0.12880387065685797,
          -0.05327745188600018,
          -0.026526003630613068,
          -0.10638507624401962,
          -0.12119140677132015,
          -0.1085198729658427,
          -0.11374795865857636,
          0.01035243619938047,
          0.0044000146677236115,
          -0.022872351737281596,
          0.00037840350684578054,
          0.03652765249273208,
          -0.01266063055544818,
          -0.03395120774602939,
          0.009516149996804505,
          0.028187715924679807,
          0.014180622368515685,
          0.017396352332573667,
          -0.04386752239128749,
          -0.04367029836409225,
          0.019127194281735416,
          0.05162088236100713,
          0.018801999069813686,
          -0.04517324030385722,
          -0.07028396980692975,
          -0.019810284896318836,
          -0.024499068286512434,
          -0.05400451287859993,
          -0.14202078013484176,
          -0.020283718273226788,
          -0.0276432395525674,
          0.011835082352219424,
          -0.0240863255270094,
          -0.07836167898013158,
          -0.1051844939335791,
          -0.03912250164682178,
          -0.019919671410453133,
          -0.015057617338293671,
          0.037780850861046905,
          0.013927370429427993,
          0.0069660458451436275,
          0.01358814887841475,
          0.0024893456779813625,
          0.022686074441223197,
          -0.031474207202451435,
          -0.03428778692042615,
          -0.05484097880310943,
          -0.039483568770789026,
          0.010066509038198146,
          -0.022858585826610385,
          -0.06391946172620648,
          -0.07999686815070867,
          -0.06557128422387923,
          -0.13841250156404658,
          -0.011651200742710817,
          -0.026748173107838565,
          -0.017748294942362255,
          0.0796756837850571,
          0.02271128482510282,
          0.05651966184898578,
          0.08738496097949142,
          0.017827462728857015,
          -0.05862775874899088,
          -0.05963367794298239,
          0.013271329373149404,
          0.023046523190735406,
          -0.007631604155977271,
          -0.012391268453520468,
          0.00846108574444807,
          0.006838037089893325,
          -0.03652929487876688,
          -0.04088448597158762,
          -0.034870498929618875,
          0.028022051114679744,
          0.009390755717845041,
          -0.05508731659891912,
          -0.025337184600463993,
          -0.04995876200591515,
          -0.05371759594888244,
          -0.10712795143081728,
          -0.0847515760115631,
          0.022097699713961545,
          0.01791992561799913,
          0.02570767601763596,
          0.07088192460142248,
          0.16182691360815257,
          0.18172060839109994,
          0.19323518068505272,
          0.09572703515668818,
          0.08450857562454252,
          0.08406248305160496,
          0.0008253531668402591,
          -0.045128707821969934,
          0.04666159283666826,
          0.02739450407612615,
          -0.051720234724945455,
          0.007367941896871982,
          -0.004350939961691228,
          -0.005355661078180174,
          -0.02967850614402987,
          -0.029532139889001174,
          0.030517285824979576,
          -0.04263154016217341,
          0.007308272055826519,
          -0.0015884911354022112,
          0.0003309845259753121,
          -0.0674524476465508,
          0.0064293447991289575,
          0.03220113625545856,
          0.005315812459319381,
          0.07350259555390731,
          0.14165952146408894,
          0.07206808358874137,
          0.13721760288238305,
          0.16394803421836163,
          0.12375295692084007,
          0.1809423357844491,
          0.1160991884622853,
          0.09339857647869818,
          0.06430185993053811,
          0.07623295945750111,
          0.0912755483264552,
          0.07224575292754887,
          -0.051450166749645865,
          -0.01590665112847516,
          -0.00021750746331520185,
          -0.0067748390889867775,
          -0.031011958986557852,
          -0.040902242294334486,
          -0.03795756352497946,
          -0.051656107623392476,
          0.013657478088398184,
          -0.018834703288065507,
          0.027474164982316994,
          -0.030749281936687255,
          0.02998171345591016,
          0.07171563611776044,
          -0.02029826626106858,
          0.15623159524630728,
          0.14772559439315308,
          0.08283513011734621,
          0.08021113657141626,
          0.09320915005745399,
          0.08609204024212423,
          0.19852560972070218,
          0.17039850509737312,
          0.2209266204183269,
          0.14383457277173248,
          0.15223986068901044,
          0.1302856620611097,
          0.060807992663357804,
          0.04889195195082191,
          0.015911023360158868,
          0.008532154441772194,
          -0.01678240951394779,
          -0.024205337682988735,
          -0.01396091650298445,
          -0.005188050925788282,
          0.03887697530529218,
          -0.008287305604741009,
          0.023869888512474784,
          0.09260544656994747,
          0.049991930806550636,
          0.060061911528154946,
          0.11722304871870606,
          0.08095651600242953,
          0.13016206082074386,
          0.09927958217195355,
          0.07746927324672385,
          0.058061004362116496,
          0.15147769019697516,
          0.1855868216466888,
          0.12815924866788467,
          0.1466397215321916,
          0.179271120494578,
          0.19530013156857942,
          0.09688975868441234,
          0.08158850634299236,
          0.12890223990179137,
          -0.021150334785285597,
          0.0055409741962303425,
          0.0061403232031462885,
          0.015807850594622825,
          0.007685276490968795,
          0.04915080886356053,
          0.002949142521526942,
          0.0024983312342355063,
          0.10280394871551043,
          0.09831245350851907,
          0.04237040750102666,
          0.14803874333502653,
          0.04314986280761507,
          0.11441741102931664,
          0.14331456759123082,
          0.21334206415940063,
          0.09707424098882086,
          0.05023860773166003,
          0.03868421157268979,
          0.1524391213852495,
          0.1137513213126601,
          0.06765935461399991,
          0.11583505946738284,
          0.04316750946238619,
          0.08781768294300885,
          0.09783613771287641,
          0.12537928793995595,
          0.08566791211923686,
          -0.026119931178190333,
          0.038596402699842686,
          0.02989752210059925,
          -0.03847354638043079,
          0.0019131174163705244,
          0.038887917956225024,
          0.059271919300862994,
          0.030847833471376353,
          0.1085830164513712,
          0.07452038453802187,
          0.09260070801175366,
          0.12500711656613508,
          0.12818300033539873,
          0.17585460444749745,
          0.14417811572322375,
          0.040501841399547406,
          -0.00688833269836807,
          0.024551313845223965,
          0.056433171039193854,
          0.15410192220802538,
          0.06639276865566969,
          0.09652080123805189,
          0.05491771401114622,
          0.009963298408797436,
          0.04059206521134919,
          0.1159582597270395,
          0.04188920639689273,
          -0.021118771801492915,
          -0.0036826459596582175,
          0.04797147904829719,
          0.003377090444205558,
          -0.00675831760885992,
          -0.03728941599717967,
          -0.012385543631022287,
          -0.0077274645086323245,
          0.004560694487339436,
          0.15728140671018345,
          0.18476327813417978,
          0.13976164963543464,
          0.14499198146075723,
          0.06209401105294801,
          0.09197740926575655,
          0.046375245403720254,
          -0.098636929404626,
          -0.09896214379406881,
          -0.07010840404592873,
          0.01572161078121212,
          0.0028868260259019393,
          0.00623366064023505,
          0.016699117681958885,
          0.003208491390280794,
          0.029324497080287313,
          0.02486221474389101,
          0.07675568531764349,
          0.06051241568406174,
          0.0009241107856188229,
          0.01221156284869816,
          0.04485751017312142,
          0.03102680991170563,
          0.03652847470635177,
          0.029647617826930667,
          -0.04638656549809087,
          0.008363318725750465,
          0.06584913243072096,
          0.08391181076210419,
          0.15846119182780924,
          0.07624553600107946,
          0.020347479584268673,
          -0.03505112480742454,
          0.006342702296665817,
          -0.042228959781548586,
          -0.02847413521425476,
          -0.1436226100402853,
          -0.15206466196812218,
          -0.06311684446546187,
          0.040479023840793674,
          0.04653774220288634,
          0.032812051069115764,
          0.06166455156745973,
          -0.020877327831752834,
          0.03669751176415446,
          0.08566778056558852,
          0.014419643114710987,
          -0.00606817863627344,
          -0.01830604798505,
          -0.05141630175462674,
          0.019914145617020332,
          0.02726715456336595,
          -0.015610542987893923,
          -0.03128933540535659,
          0.0020531187996418294,
          0.094326648214125,
          0.17518845582836123,
          0.1282578064726013,
          0.13395957529683317,
          0.05159766882146225,
          0.10556250900919,
          -0.03878097540017427,
          -0.02964612851742667,
          -0.035479470417842406,
          -0.06784265798661092,
          -0.11067963271502619,
          -0.052996570069802656,
          -0.027830738223090783,
          0.12693091542131857,
          0.01858309638168896,
          0.026526786210350622,
          0.013535039090875814,
          0.02086979436852215,
          0.04565803624527753,
          0.032281770752534626,
          -0.032057088661142985,
          0.013971546913526721,
          -0.03372022878165598,
          0.02645908689725894,
          -0.04306047863186938,
          -0.012904125539939398,
          0.05034814064264252,
          -0.008264877378928214,
          0.05961692642835458,
          0.18424796097086013,
          0.22715096365382864,
          0.16825505099933447,
          0.1072371766014129,
          0.09917116046701714,
          0.020632902051542213,
          0.09255564928785698,
          0.005350554734243822,
          -0.10791700127811316,
          -0.07874942555077159,
          -0.050140726502042904,
          0.08060273066503562,
          -0.040103887079177336,
          -0.06232231932961782,
          -0.01539713200526821,
          -0.004564608151527421,
          -0.006687609166095418,
          0.02463381675015684,
          -0.04755126321854792,
          -0.08421816194327908,
          -0.010733146657300203,
          0.030761212116677508,
          0.0071888921013600815,
          0.03044315673618829,
          0.022049808761969374,
          0.040930132552835764,
          -0.003982399400666993,
          0.021118700238068513,
          0.11043090230759814,
          0.10609404824038407,
          0.11440420015056053,
          0.08852725433445657,
          0.07292640566961846,
          -0.06423182093190848,
          -0.08233483140849676,
          -0.10101135521231222,
          -0.12449591803021451,
          -0.031030064177761937,
          -0.019499822234907937,
          0.10657416521131167,
          -0.003548467456941729,
          0.00852281741784445,
          -0.025124483281032825,
          -0.12941313079523414,
          -0.023508798990348447,
          0.006885850469668602,
          -0.12450157470008562,
          -0.07213546700753931,
          -0.0019329222332685444,
          -0.036995923609797955,
          -0.027179018449198945,
          -0.037814932693194886,
          0.03814279298801371,
          0.04578223995556491,
          0.01918292510054931,
          -0.0197760699785205,
          0.065841676038484,
          0.0807965733270967,
          0.029393804028262627,
          0.08519568029858175,
          -0.07300794961499782,
          -0.05966935054250607,
          -0.12051967807506883,
          -0.11100841472234521,
          -0.050645034387137904,
          0.04778137124141565,
          0.14567319483792388,
          0.08808961147287694,
          0.01985346321154563,
          -0.03855940266000008,
          -0.1531857771241883,
          -0.16407785102990474,
          -0.12358156109901144,
          -0.07776873744401946,
          -0.10429355697942527,
          -0.06366874904276836,
          -0.05533514582393738,
          -0.01934368897961216,
          0.019216915463053923,
          0.029894748600101474,
          -0.039988113204611334,
          0.01936197942404823,
          0.008043770072336389,
          -0.0033313932277922956,
          -0.024543279234523888,
          0.07001756488797888,
          0.0912545560711091,
          -0.04152595523640543,
          -0.06435824121939539,
          -0.12440653488684442,
          -0.17070817986597236,
          -0.1673849432169581,
          -0.04638653998145489,
          0.006142720366130156,
          -0.018023753621691292,
          -0.08181023471255704,
          -0.11480292918555547,
          -0.11635430954732173,
          -0.21549460550847152,
          -0.1529064221353359,
          -0.0951096347314984,
          -0.12338031961719556,
          -0.12627687261765247,
          -0.10718106880724229,
          -0.004432580161375885,
          0.036723872990272716,
          -0.03749140339536115,
          0.04126176582726028,
          -0.049111341906835915,
          -0.003626026054955387,
          -0.0061981882255110485,
          0.010429133478986202,
          0.056640382525303686,
          0.020713580026704176,
          -0.0018252267048183093,
          0.020490196643324604,
          -0.05653753367157222,
          -0.18607314102680766,
          -0.15537378046922484,
          -0.11283262596302165,
          -0.06203118497274237,
          -0.057262080143758394,
          -0.05756813952879134,
          -0.09915663354203047,
          -0.0990003698086568,
          -0.1776026758051475,
          -0.07825469741401654,
          -0.11061286601992854,
          -0.017128435072120196,
          -0.1166578459628314,
          -0.1501453912031763,
          -0.08103330574890329,
          -0.06474761342422909,
          0.0184694221710025,
          -0.001418386005225374,
          0.01744038539350032,
          0.04783520906653489,
          -0.028232780224290918,
          -0.03147129573254708,
          -0.052618524877247365,
          0.003965209997045283,
          -0.0031645402530675756,
          0.005536242054517176,
          0.03754130242362662,
          0.02140266189143229,
          -0.06813703943960565,
          -0.030963713063178085,
          -0.0010834693462765585,
          -0.0713493425347899,
          -0.03774701933409581,
          -0.07996176234779272,
          -0.1111432164576116,
          -0.13697101388206473,
          -0.059279295395095306,
          0.02887523570917646,
          0.032691523145612154,
          0.024872536397842416,
          -0.08794849244259102,
          -0.012060901024942975,
          -0.06185231803305927,
          0.019985472653251107,
          -0.017185955140986277,
          -0.006170830651963302,
          -0.04001813803739291,
          -0.041270932438481955,
          0.01951652368466206,
          0.03673401998856789,
          -0.02152875833959425,
          -0.023688888811252203,
          -0.06888230284378162,
          -0.01022592182779019,
          0.036515181041830574,
          0.02239587286776307,
          0.04818575199945573,
          0.0739364374601366,
          0.06713675988382255,
          0.06193386671470469,
          -0.03454309876023804,
          -0.05894522307058483,
          -0.09777641986368937,
          -0.025678516618651868,
          0.013470911869213646,
          0.01986790482658271,
          0.0011674029235499092,
          0.018302119918707203,
          0.016111240977614186,
          -0.015342841553218696,
          -0.000011809083594300043,
          0.038745167991939666,
          0.04962132025576225,
          -0.005354533885904387,
          0.0015552795540342535,
          -0.03668731642269236,
          0.02421013887112626,
          -0.015744342510065925,
          -0.020693356311714574,
          -0.04094410329580992,
          -0.002846662911101814,
          -0.0523741812974258,
          -0.044363832230798615,
          -0.06140167357733939,
          0.10670771790054955,
          0.11539525741770934,
          0.22705198687624428,
          0.10857405912762426,
          0.06608126997625197,
          0.047079013981934106,
          0.06557934357580053,
          0.08247825898059076,
          0.039078529810442734,
          0.024416054749483544,
          0.05066187276102275,
          0.06551427107216626,
          0.006783767554466168,
          0.004803035330333223,
          -0.016434197168027808,
          0.035493273995194856,
          -0.05017271021952247,
          0.02722536033460254,
          0.050017582584848654,
          -0.027717694106307998,
          0.013163831037103378,
          0.04200917662978282,
          -0.0389353322966671,
          0.033760873945108474,
          -0.05369457075440315,
          -0.031059646978633098,
          0.01987134725859239,
          0.030442756432141924,
          0.09591858446378687,
          0.04859399043690599,
          -0.007070462017497896,
          -0.0327332015192518,
          0.044603159595611834,
          -0.0025807346637372833,
          0.13066942849929933,
          0.12277972575564129,
          0.08319472150750797,
          0.07962145232462436,
          -0.004434719413420467,
          0.026740961814546278,
          -0.005765696170592041,
          -0.015385222659593046,
          -0.04072004051167408,
          -0.03359320347669307,
          -0.0376819928263337,
          0.026666200402956572,
          0.011835214346796772,
          -0.021654110388831548,
          0.01704054087727198,
          -0.018740171603070982,
          0.02951847519177023,
          -0.02692304727851205,
          -0.04802059049476776,
          0.014784841305000747,
          0.034179496616724696,
          0.07817581766949037,
          0.04409314339241817,
          0.10698100826519326,
          0.09273007649503646,
          0.03233212181387784,
          -0.0016268046316605523,
          0.027058272977648942,
          0.011315339995158775,
          0.06562376101217678,
          0.0035214815507825506,
          0.040839571361017395,
          0.09020747066197402,
          -0.011527972630741293,
          0.05836417589197257,
          -0.030229307494605933,
          0.024797355917485848,
          -0.011133186905932553,
          0.03149964893766799,
          0.04577132431961122,
          -0.05036127967733424,
          -0.0021921474440731196,
          0.03330977043571031,
          0.024084789936553212,
          0.018825140803682527,
          0.03760914515251285,
          -0.025198892682235977,
          -0.01693941501856487,
          -0.02676304830769454,
          0.05607820588668816,
          0.035166668646210764,
          0.04929082647900837,
          -0.013373972502745067,
          -0.038850977835916074,
          0.021051792829083267,
          0.06601673422403335,
          0.0032684611928261915,
          0.03482252334513605,
          0.012614823992033047,
          -0.02017892284030102,
          -0.003977345027418137,
          -0.005457363785456152,
          -0.023044026498373053,
          -0.023211157168378304,
          0.01539094743104211,
          -0.0035716374233207577,
          0.011982364820975658,
          -0.027332209335351586,
          0.04366434326581941,
          0.048601736917152964,
          0.033777757838297486,
          0.028267661420632098,
          0.044534999892342005,
          0.045877349120538875,
          -0.02094472527423689,
          -0.01368282679826007,
          0.024949331499703676,
          0.03706158909006143,
          0.05438936463431615,
          -0.023778744818999022,
          0.028928014153834537,
          0.011205486099040332,
          0.03039120216534813,
          -0.03209412562343974,
          -0.022865078443990095,
          -0.047752423026736955,
          -0.045579995376795995,
          -0.024275753629450832,
          0.047349282511437815,
          0.014164599110928105,
          -0.018009039304216438,
          0.04005852617803651,
          0.018250943612051897,
