{
    "layers": [
      {
        "weights": [
          [
            -0.025342798333641378,
            -0.03228177951735752,
            0.012495499629766824,
            0.03582128594931723,
            0.04856766491794185,
            -0.03972219777262431,
            0.031321372477820596,
            -0.0335052634459172,
            0.0031540701112926944,
            0.02426423052176906,
            -0.00957598839376418,
            0.02725126263751991,
            0.021985707509331404,
            0.040258682136790507,
            -0.0392774618208128,
            -0.022687066418678074,
            0.015085729840988582,
            -0.0031362120723816256,
            -0.033767128344031234,
            0.021110464143901556,
            -0.008776684249525008,
            0.01696897710894601,
            0.03185714186895604,
            0.02382628517216586,
            -0.04234751001166461,
            -0.023588712943942696,
            -0.02662544761048857,
            0.01967950498648013,
            -0.046248633640531944,
            -0.010857330758355583,
            -0.04240762337796317,
            -0.006079598584042087,
            0.008176569620419866,
            0.04472461546827094,
            -0.043650340654747995,
            -0.04179833515451039,
            0.03149798144570871,
            -0.017333433367350506,
            -0.0009756723610471041,
            -0.039873709475780034,
            -0.03350947306324971,
            -0.016328663497302647,
            0.029648423375147115,
            -0.02376058332031081,
            -0.026596318744087136,
            0.01114145323280366,
            0.03238519293784104,
            0.020540210421691893,
            -0.01903129286374041,
            0.01955111040052622,
            -0.003960720203635288,
            0.037101790153588735,
            -0.013961758126353535,
            0.00951885516702522,
            -0.03900477867474967,
            -0.03783004010073073,
            -0.0036904708332200008,
            0.0058642745108992075,
            0.028859034424709013,
            0.03660288122851751,
            -0.0416270343666699,
            0.01837799855622205,
            0.02527682141438955,
            0.025340331529181727,
            0.03345281346705259,
            -0.022339117124747652,
            -0.024424527424326374,
            -0.015514599373305547,
            0.009272695443705884,
            -0.02298494987890777,
            0.017136034507099718,
            -0.010628569499518443,
            0.02530684053953589,
            0.05672074427035279,
            -0.002583422292944356,
            -0.024185582862863854,
            -0.03391301923297908,
            0.008175095675188326,
            0.017645180056004288,
            0.015307135260276874,
            -0.01434924906712788,
            0.004045854953766845,
            -0.03786488551159479,
            0.0391229844611479,
            0.012036409782158945,
            0.024316910245753453,
            0.039111111009436476,
            -0.008267518274223203,
            -0.004924917880598445,
            -0.04142996377087185,
            0.040099812966831724,
            -0.028195717900854834,
            0.0021756781429078855,
            -0.00737555946121435,
            0.02943088037988364,
            0.021212173511130798,
            -0.008511118433412934,
            0.0017976289831335107,
            0.04949451343770219,
            0.05111491713447937,
            0.05805852462133975,
            -0.0326867945120004,
            -0.02163640787875501,
            -0.07358017362993259,
            -0.06958770139154573,
            -0.07702163078271522,
            0.013919958351450582,
            0.03783688197971841,
            -0.0010083147612301188,
            0.011231459002103183,
            -0.04009694792776706,
            0.001907243866913463,
            -0.009757164307175494,
            0.03444186852115181,
            -0.01365221955379868,
            -0.0069252923830594275,
            0.05076077553384251,
            -0.0001437776460059687,
            0.06914388896501672,
            0.042961456821578765,
            0.053268010348839004,
            0.05477747691808338,
            0.12422750048266015,
            0.07189645991540902,
            0.14450591518882483,
            0.08717841888574805,
            0.03258533627658071,
            0.0917244993134259,
            0.0569912674347919,
            -0.02517221299304643,
            -0.0799803949703255,
            -0.06587140609390957,
            -0.005386051950653436,
            -0.07248899100597289,
            0.048408290028407124,
            -0.03500538354529464,
            -0.010969383614495388,
            -0.025291951812912345,
            0.02271770672242869,
            0.01925066372189445,
            0.01993545587704461,
            0.0056822087006952035,
            -0.036079509233220945,
            0.04405401177512112,
            0.043716547455783836,
            0.001261051290356099,
            0.06396004419666838,
            0.030500043990073385,
            0.08358133609740426,
            0.10286733909663277,
            0.12289836685595548,
            0.10878210866024125,
            0.17233455309725623,
            0.1449188048293302,
            0.02295625959922932,
            0.05661312064092844,
            0.0758779982418067,
            0.1529304977029633,
            0.14793328582361753,
            0.06114520652357706,
            0.155566654809838,
            0.08717322557770332,
            0.07608344797675388,
            0.0631669597964938,
            0.08117724716337471,
            0.031600723755639555,
            0.05677658936660471,
            -0.022324496789675408,
            0.042313296628820066,
            -0.03379631854042329,
            -0.0011746574658648681,
            -0.0427646960737965,
            -0.06097959635770023,
            0.04941701818781189,
            0.00038939019270942793,
            0.11645948338302108,
            0.06538094360801927,
            0.15458277278614949,
            0.19025741234110485,
            0.2642722673080205,
            0.13841798936056077,
            0.14236283459643623,
            0.15043027324629188,
            0.1481079832083261,
            0.10668568908982723,
            0.14244879365921015,
            0.27636662860011,
            0.2675487901374419,
            0.16183645627286314,
            0.14438152180549801,
            0.1291335999453218,
            0.14025871290864614,
            0.1648821347468062,
            0.09304471372300203,
            0.06987731389330819,
            -0.04217074612345649,
            0.006318977460776826,
            0.030845774737680794,
            -0.003247277660016535,
            0.023081275252583435,
            0.040536687906215604,
            0.08699580933331696,
            0.01790913060426252,
            0.06621885204159969,
            0.08030781041059927,
            0.06471269546050176,
            0.1468745708708317,
            0.2586837364770631,
            0.1341137156817588,
            0.22035182074084614,
            0.26126850007159597,
            0.3337193976392415,
            0.20250904020555144,
            0.17567729092910372,
            0.22194148265900934,
            0.27284260079749534,
            0.3227551600143547,
            0.1574895189058037,
            0.08866300343502588,
            0.17210482705229865,
            0.18345794188448697,
            0.13879348762673943,
            0.01972986635796314,
            0.05370424075512275,
            -0.019589147610599763,
            0.013654826756286265,
            0.011748521334730994,
            -0.012941872588717642,
            0.029356596310391527,
            0.07528928741237742,
            0.13337168297626265,
            0.10049112568090474,
            0.09111739815308818,
            -0.004877571142790753,
            0.026825723279081535,
            0.023214961125184782,
            0.07913355679620904,
            0.1335916763853816,
            0.16940865237972805,
            0.2327021571299059,
            0.1844756226280204,
            0.03381604053273201,
            0.06917102247476645,
            0.091837644020548,
            -0.02198854245044115,
            -0.016351565084486482,
            -0.02310570462524134,
            0.005364506370318431,
            0.0574093393862473,
            0.08191402019146377,
            0.07042637217015074,
            0.026179252476672736,
            0.03568485805733184,
            -0.0159363025191642,
            0.02802377969495761,
            0.027475522830150062,
            0.08357638486102467,
            0.0030203656770634696,
            0.08210313964646877,
            0.0417241088536836,
            -0.023001075545193917,
            0.003892280601973511,
            -0.048950496867125576,
            -0.05262976839767767,
            -0.05438986742585175,
            0.06949604934778289,
            0.09093344155167458,
            -0.014857062605917936,
            -0.03696238044657356,
            -0.017457399016380812,
            -0.005888018953352933,
            -0.06733759116175002,
            -0.07499131839321152,
            -0.13578959379996294,
            -0.09843654979240941,
            0.009440829372725904,
            0.02976395307043394,
            0.04612133063560353,
            -0.02154972262243655,
            0.001926570450995683,
            0.0106724427413912,
            -0.04501491788002639,
            0.018474977461157994,
            0.07462484337759326,
            -0.009319563379422096,
            0.02749544922355968,
            -0.008532426013559606,
            -0.09386776894519105,
            -0.04256856278792234,
            -0.13576137089959234,
            -0.1409006323018182,
            -0.1363261003258301,
            0.005557990840571872,
            -0.0234721472786802,
            0.03234017717472153,
            -0.11493541675040633,
            -0.10656449447293016,
            -0.17508411678720995,
            -0.14554887725823623,
            -0.19513698351206146,
            -0.14844472563056166,
            -0.16415788877709633,
            -0.1232933189305789,
            -0.08605251932392888,
            0.021744947438377658,
            -0.001938492005434485,
            0.00864967429607685,
            0.02168240973728472,
            0.02258117304975152,
            -0.013589019330197183,
            -0.030708648254703413,
            -0.031152383010275068,
            -0.0633388673766508,
            -0.022219219097294712,
            -0.06313283221790472,
            -0.11587156231007158,
            -0.1308377661937746,
            -0.19033561272879584,
            -0.17397585859894232,
            -0.03558431572555762,
            0.019269417927358062,
            0.09265743603617758,
            -0.052915601549731475,
            -0.10183845473456497,
            -0.19381469761407402,
            -0.13630182479586228,
            -0.2231377909952807,
            -0.19398782719736088,
            -0.11696723528790257,
            -0.201407753650864,
            -0.11804483614604906,
            -0.007949649520871547,
            -0.02883967492192616,
            -0.023603878175310518,
            0.0366089775744533,
            -0.0072822609114099116,
            0.02950209732071806,
            0.0027248262338521244,
            0.01690450581655372,
            -0.06171368348989646,
            -0.06234491489649677,
            -0.04419586892320125,
            -0.14582586822327956,
            -0.13703149890126945,
            -0.07590464719489012,
            -0.13337387447165622,
            -0.08382190340811564,
            0.0351763689397457,
            0.07481096388630107,
            -0.004383459139404823,
            -0.10120433483467807,
            -0.09257881782569605,
            -0.16291749608852635,
            -0.055717591237049204,
            -0.07192051669573259,
            -0.2153147354302517,
            -0.1582128121293238,
            -0.16837689776590237,
            -0.11114857000959065,
            -0.11493142989515216,
            -0.047521194072978036,
            -0.0007708511696170771,
            -0.0005505867985558744,
            0.04425473510730609,
            0.021855273816843022,
            0.04610057237133338,
            0.0009706061583447862,
            0.016708085356929265,
            -0.10743046178507473,
            -0.13603947907401626,
            -0.12971489897581454,
            -0.0388929768089277,
            -0.12684058939871629,
            -0.07092229299766711,
            0.009595989581812752,
            0.09109663988619657,
            0.1553650945542483,
            0.11130104054698346,
            -0.05910037521452505,
            -0.1989641081156043,
            -0.2186363216102318,
            -0.055325428156483177,
            -0.029476333683049687,
            -0.20943695854746197,
            -0.22101243361536416,
            -0.1845969129367511,
            -0.13714569583621944,
            -0.054124773930660064,
            -0.05218500381811637,
            0.013900955253977332,
            -0.014023337571317167,
            0.014108192293294798,
            -0.02973070980399295,
            -0.03748411191086558,
            0.00017528102893991213,
            -0.02353436958763531,
            -0.03870242165874798,
            -0.1273988619578749,
            -0.16704759764256794,
            -0.11949970065055214,
            -0.07459923745521511,
            -0.0059117377991381725,
            0.005484974518255361,
            0.02916120907763349,
            0.0009522938048042508,
            -0.05692531069582533,
            -0.2543374082300037,
            -0.3071311281396258,
            -0.2789135852259698,
            0.034831638957503484,
            0.10579468643574692,
            -0.14769864815149228,
            -0.19000682320467224,
            -0.15083364309336422,
            -0.12064704930941102,
            -0.06821418153537583,
            0.002720467819524124,
            0.006481082137793911,
            0.011314196696212144,
            0.0006575750202527539,
            -0.02775526175382121,
            -0.017392127708619143,
            -0.01761283355514995,
            0.04344728410563455,
            -0.022304807510797168,
            -0.10439528395781915,
            -0.06304347396737016,
            -0.16729244453547237,
            -0.19650689764912396,
            -0.15941748261376218,
            -0.09503597471140997,
            -0.12243466193355403,
            -0.026147677759748272,
            -0.11048691169191721,
            -0.22025123130867516,
            -0.24432539509683962,
            -0.061141927255063865,
            -0.005602684181757368,
            0.08140353566695978,
            0.03525735842851909,
            -0.02600250098180311,
            -0.008461693601813461,
            -0.022692734047863834,
            0.02800620027230201,
            0.004540347740169965,
            0.011654334153382242,
            0.004959277239827192,
            -0.015221267446758356,
            0.02069050730053109,
            -0.01793664283375483,
            0.026709077377892312,
            -0.03425206721338733,
            -0.010136843579179907,
            -0.14763848645818453,
            -0.1303716302507138,
            -0.1379600783618689,
            -0.20762742079821775,
            -0.2184189025553764,
            -0.27123967136879,
            -0.28031145585071504,
            -0.15837927148798758,
            -0.2628805985068545,
            -0.25158120835504055,
            -0.30636431420770444,
            -0.09491844221567566,
            0.06757213623802943,
            0.11851696851276454,
            0.09840130362458961,
            0.016683437835257484,
            0.010488725275197574,
            0.04164721705927579,
            -0.006060062345076752,
            -0.043372803895556145,
            0.029007167544621584,
            -0.020084406508727694,
            -0.01814139791558251,
            0.015311007825219406,
            0.01609952715068479,
            0.0016282077189825046,
            0.07236393284197705,
            0.019217505267413844,
            -0.03989966067823243,
            -0.13341262831383133,
            -0.17773284540843345,
            -0.3248783722193528,
            -0.42436720838089087,
            -0.5181678736063,
            -0.4659821889475988,
            -0.42594496212093336,
            -0.43575328842113,
            -0.33588654649921795,
            -0.1642422481229574,
            0.03388424973073036,
            0.1961804195166222,
            0.1711348617359206,
            0.13428673379163153,
            0.13246848925377241,
            0.08774946995612522,
            0.04599355589405179,
            0.05696918083168699,
            -0.047209490249512286,
            -0.022794259915138514,
            -0.03361657138361573,
            -0.030944207230422092,
            0.040491332688901115,
            -0.014550487502924906,
            -0.04351732226503697,
            0.015496976463839419,
            0.15420087019481402,
            0.06136451715061473,
            -0.003783909870160044,
            -0.12586416333233214,
            -0.29779811371092213,
            -0.36681185513834935,
            -0.4366711892249798,
            -0.5395776109841572,
            -0.5046965643185021,
            -0.43306477821884976,
            -0.42346141568812823,
            -0.14893186209321513,
            0.06014841147053345,
            0.22222511662318084,
            0.16285139308260388,
            0.15787871889977378,
            0.09949501045347468,
            0.10143393365540429,
            0.06204127779296268,
            -0.00729202464548201,
            -0.018037318360473,
            -0.029957804418570023,
            -0.02319027593350648,
            -0.018327872205167507,
            0.02758796239764104,
            0.03615074868715924,
            -0.022765172796048238,
            0.08171010086229194,
            0.1264070931578831,
            0.21062829556228674,
            0.09074005644771362,
            -0.04411192443969031,
            -0.12575902673672726,
            -0.22235771501235777,
            -0.2770678356667362,
            -0.3217360187969854,
            -0.34504701696659573,
            -0.2798063754070992,
            -0.21447638068277225,
            -0.09739742410883111,
            0.14290634964310897,
            0.21011517863945878,
            0.15371995256123003,
            0.11091883597980404,
            0.1315316991078674,
            0.17817467289856548,
            0.06174921238243572,
            -0.048428912110510196,
            -0.08580226157065016,
            -0.012906500692456399,
            -0.03163137892317827,
            0.006386875382283131,
            0.021521499043761994,
            -0.02166492032283276,
            0.0252441881150356,
            0.05869751932300109,
            0.08178881999190014,
            0.2084082189115742,
            0.18704613090031738,
            0.10114371169196866,
            0.041810748000916276,
            0.006455818123136319,
            -0.059186322919673406,
            -0.024606083443057692,
            -0.08718016649156039,
            -0.002036282743777807,
            0.058423756481136256,
            0.07165050051648945,
            0.18389447330338177,
            0.24265953836315338,
            0.10196039123389693,
            0.1282319105394144,
            0.1699683088721023,
            0.08219824376036988,
            0.042159823287093855,
            -0.05484619009858623,
            -0.032396051155226945,
            -0.02580342273270034,
            0.03423127677130621,
            0.003283360484929917,
            -0.02364706122445052,
            0.002181128013532778,
            0.03493968989740213,
            0.05476603993948942,
            0.04290523725315675,
            0.1380545093911702,
            0.26018320302905584,
            0.20957607552681595,
            0.18317136416679805,
            0.09822213043673254,
            0.13090404044641352,
            0.12326585669675541,
            0.14737829106514358,
            0.0954877274529751,
            0.09952969449262927,
            0.07528222437614994,
            0.02122757985673698,
            0.08588592251986885,
            0.07915412802479624,
            0.08768483420434144,
            0.06490543116357095,
            0.10602964095292204,
            -0.035976657393591065,
            -0.07359206181395754,
            -0.010661881212024639,
            -0.014340740383741585,
            0.04283703351934157,
            0.04116835884178384,
            0.04315130418361845,
            -0.041707986208548306,
            -0.043228574164995384,
            -0.02235106518695459,
            0.032678560034205516,
            0.04871057780290895,
            0.18446101419233532,
            0.24917409480119196,
            0.16082900446633336,
            0.19766526610968052,
            0.10674363433169923,
            0.16275455702725866,
            0.10635594750656814,
            0.08450564154535063,
            0.07514266729177492,
            0.06124231720263052,
            0.12580215847399276,
            0.1536681596533557,
            0.033321142650425115,
            0.06117456808628201,
            0.016293431505401405,
            0.03017523341713506,
            0.057013368794563354,
            -0.025111326089766593,
            0.04085495749677728,
            -0.021331434294193142,
            0.05165800809678897,
            -0.03159560846792834,
            0.014271349291633434,
            0.03806882130335714,
            0.0020873160499544382,
            -0.039691540574331004,
            0.0022022462317814653,
            0.06358610627208135,
            0.07616940492345307,
            0.11968906594809718,
            0.16358391359727747,
            0.1918243294411455,
            0.1513834058674758,
            0.19727236343061194,
            0.1508456975129286,
            0.14254273088844663,
            0.011628504430888632,
            0.08154919467484946,
            0.16112847340568853,
            0.052716241594926654,
            0.06667736019031847,
            0.05438240522023134,
            0.04274138285138799,
            -0.012012193967620776,
            0.05045369950506948,
            0.021218665752143234,
            0.0471809573159795,
            0.043831481076060996,
            0.030315158076839727,
            0.023479378382586204,
            -0.0030938552664813053,
            -0.02805673580609579,
            -0.047326511909650114,
            -0.02296164827343458,
            0.03368401234004162,
            0.041554678581687994,
            0.037923632036986274,
            0.15691215448489335,
            0.09276828251518261,
            0.015525591942440157,
            0.04188286311323164,
            0.07114801966474714,
            0.1638748301487548,
            0.17385181959342344,
            0.03531440502363879,
            0.06040864665436491,
            0.08853008832126225,
            0.03323559956398204,
            -0.010309399874824696,
            0.03598465240767512,
            -0.04812603155618067,
            0.018632792953064612,
            -0.0017058406007899572,
            0.052739443789443514,
            -0.03390300634985029,
            -0.042150692161595914,
            0.007986418188303987,
            0.02725700821313064,
            0.04194114769522563,
            0.013757306774602424,
            -0.04090957277738255,
            -0.005476034998045353,
            -0.013738332947527023,
            0.0474203974198635,
            0.010529430256731863,
            0.005084326166780029,
            -0.05555878354092826,
            -0.09587378224557488,
            -0.025022275709387247,
            0.08820733724424,
            0.11874448264853923,
            0.07430184575433364,
            -0.010348127805769072,
            0.013606362772630233,
            0.028961220733470464,
            0.05223904356727161,
            -0.05233446532926084,
            0.0012957517230763784,
            0.030672783788383066,
            0.005988610085881588,
            -0.026119231084566666,
            -0.024341612965465824,
            0.03781295347891852,
            -0.038529809844910515,
            0.010147892916188322,
            -0.046476972885206115,
            0.005908387449638015,
            -0.026463744637763947,
            -0.042771180241587096,
            0.040652582934599835,
            0.03897842275626472,
            0.03902823991773248,
            0.037178547029716645,
            -0.009691742926016846,
            -0.05925574769574653,
            0.009655495919570168,
            0.0029340325005978965,
            0.04470508248132085,
            0.0517302611568243,
            -0.041443088948205316,
            0.025853958490166758,
            -0.011565135672210104,
            0.005922641741109843,
            0.014363358282913798,
            -0.022103246466161727,
            -0.02945724868223263,
            0.051678770124226274,
            0.028486959699871462,
            -0.0443273154297638,
            0.02698364217196731,
            -0.04230195208370171,
            0.021352718232193747,
            0.00530159408927202,
            0.04988890872133262,
            -0.04784556652737899,
            -0.01889721798173839,
            -0.05019248515573529,
            -0.049938099043848834,
            -0.04035533047239178,
            -0.044141091658133874,
            0.00004400631682466223,
            -0.038920174595433586,
            0.0023146521232940164,
            -0.04710394583684771,
            0.03190804533450394,
            -0.009581318312952333,
            0.022927180615169202,
            -0.006177997798299782,
            0.007364969875354256,
            -0.020109251130737773,
            -0.029405934552830946,
            0.050195711587245256,
            -0.012727439634737112,
            -0.0280823813519792,
            0.05020180606113638,
            0.03713525326389321,
            0.020493157647145765,
            0.00009542183450308569,
            -0.009063875805998624,
            -0.023469167664729465,
            -0.02310437961336224,
            0.048945953934216115
          ],
          [
            -0.03537851474645575,
            -0.01528246518731593,
            -0.03528909445325607,
            -0.005499019097246323,
            -0.031500369212509184,
            0.012590972000566372,
            0.020643780578739248,
            0.038135947205426665,
            -0.03503781370806229,
            0.007076086633063198,
            0.011973837273820785,
            0.04139257530688219,
            0.02991220531306696,
            0.0035070834714158432,
            0.0019058537703122611,
            -0.0040431534823632855,
            0.04260686456635155,
            0.010496985930205434,
            0.03576310224342826,
            -0.03373589798235162,
            0.03788139552936167,
            0.020954491851495238,
            0.0035068811186889414,
            -0.01578916782150799,
            0.03785943028480004,
            0.0015268484157710156,
            -0.04127594657569956,
            0.022090549787766645,
            0.010103806466008475,
            0.002465333634956092,
            -0.03995693414827477,
            0.02593126235734909,
            -0.010898575964829127,
            0.022912702177412477,
            0.033425247594533636,
            -0.019575303410760126,
            -0.019287170548306736,
            -0.047155904696596564,
            0.04990135953917356,
            -0.04685413371884393,
            -0.040864067816620164,
            0.015522199165854492,
            0.009322511496213402,
            0.00011364825965645239,
            0.02136206884215058,
            -0.019400878630459202,
            -0.03714852311064094,
            -0.011396483185969338,
            -0.0009985040108138386,
            0.007662845582212886,
            0.0004252713227332083,
            -0.026001938628064807,
            -0.0077970366812251295,
            -0.029373422475760212,
            0.004509578206452915,
            0.002323715079356026,
            0.02555038058627561,
            -0.024580270632795942,
            -0.0009847191115635624,
            0.00782100628125475,
            0.00942051275126114,
            0.017847945940462795,
            0.03775603776910637,
            -0.006587870680118559,
            -0.03905566866819082,
            -0.033982903307137366,
            0.014871751130512189,
            0.016095862291879214,
            0.024705853104711625,
            -0.010340158753638569,
            0.02996855518338284,
            -0.04114612211345508,
            0.00915169144160206,
            -0.005291956863844331,
            -0.013793424902422502,
            -0.019274339299669388,
            -0.039884856585881104,
            0.024357224452223138,
            -0.042616534022614026,
            0.011709973285474823,
            -0.0054005909639757415,
            -0.03838295497400523,
            0.04222889675624108,
            -0.03560755044421162,
            0.024581046828385297,
            0.022317733332505602,
            -0.037928056169625225,
            0.04141762748207053,
            0.02541057841446394,
            -0.028685432604353075,
            -0.010457098384971424,
            -0.027139756066244344,
            0.034406869680686486,
            0.0031966103219625737,
            0.0496095542857348,
            0.04740647999166058,
            -0.02762121010264156,
            -0.032695351436581165,
            0.041302246219953244,
            -0.00311599880770929,
            0.002845938796243717,
            -0.005089572071486192,
            -0.011196241799685315,
            -0.010719170596365374,
            -0.038939953133585274,
            -0.030397846593126113,
            -0.008341559694457544,
            0.026788492538383925,
            -0.025525203885663258,
            0.028884083188286502,
            -0.03035265780632119,
            -0.004936075891132788,
            0.011917320882605923,
            -0.028064938148355055,
            -0.03527119828059804,
            -0.0022847036886439755,
            0.014899247813839701,
            0.012161200287968923,
            -0.00522221188445266,
            -0.0004814508167477924,
            0.03951582152286255,
            -0.023091311161539802,
            0.034492300885794955,
            0.038556190162103404,
            -0.030057135857975828,
            -0.054323719155313144,
            -0.03310495681396838,
            -0.01963445491355981,
            -0.011584206109466016,
            -0.0353004218146225,
            -0.039046586335838504,
            -0.03928832727623591,
            -0.01361463805663387,
            -0.03711025852763577,
            -0.022830386356759987,
            -0.01882258293113968,
            -0.028040702492388596,
            -0.030851512993686516,
            0.034177576372270896,
            -0.046153063935518115,
            0.0333002013920437,
            0.010602572867690412,
            -0.02431822522220138,
            0.012712061161147033,
            0.0117993139073426,
            0.01776246692997578,
            -0.0059409501400044685,
            0.03745899679656729,
            -0.018112201212837617,
            -0.040084545404676805,
            -0.006384293526374058,
            0.021525215065985388,
            0.03950125996937343,
            -0.005504580957603232,
            0.022281176259291897,
            -0.04206171689744962,
            -0.027732052487507555,
            0.012548999833585376,
            -0.03804439687227722,
            -0.04740966325367974,
            0.03761422417546169,
            -0.005526619896665855,
            -0.010401892581158702,
            0.037686162545224305,
            -0.0008731084704470368,
            -0.007864963832050193,
            -0.021958250944246128,
            0.04571593807634716,
            0.048570199849402494,
            0.044706077098523665,
            0.004676283228030878,
            0.03383268040587794,
            -0.025092020914420848,
            -0.032367431883764744,
            0.005748023651371904,
            0.02784518499227584,
            0.0081817251385591,
            -0.00045922320414284643,
            -0.052188317720436785,
            -0.01443989643612055,
            -0.02226858460268463,
            0.01797594135056967,
            0.006653926863772453,
            0.016359672648485108,
            -0.02775128218508016,
            0.024360389648188176,
            -0.03351678965497415,
            -0.036695394870351956,
            0.04142199005585183,
            -0.01968557132585977,
            0.00414994440430528,
            0.0011453850065379096,
            -0.0182180371891733,
            0.021414199706656662,
            0.045517031979189326,
            -0.0324506600400059,
            -0.008799711465135312,
            0.013574402868429569,
            -0.001893970872994437,
            0.04648976388371188,
            0.0034802298343897284,
            -0.020953415918653864,
            -0.001391991899031629,
            -0.04287675938602034,
            -0.04803577222358944,
            -0.03902437631371147,
            0.04142688047400596,
            -0.04671182934504162,
            -0.04653503457482343,
            -0.049799620781746635,
            -0.021755209821863405,
            -0.04416653248765608,
            0.0023176252371220796,
            0.014761437509077232,
            0.034280951814957134,
            -0.01295957253584094,
            0.003659832778422448,
            0.03957763754554524,
            0.03367776038103762,
            -0.00847785237095967,
            -0.039520987234716795,
            -0.010031293266730978,
            0.045137523055630804,
            -0.04674217219737389,
            0.022704233451389673,
            0.014165050958464548,
            0.006025157767113119,
            -0.04099920687632662,
            0.0195249037531757,
            0.040823691709611885,
            -0.022896610869195196,
            0.04563768679186787,
            -0.04657491055527726,
            -0.00045438339170181106,
            -0.044380729238922924,
            0.006753948394065792,
            -0.04559010413562174,
            0.02762315136325545,
            0.025732258354312268,
            -0.0034709946914985358,
            0.020984098067527848,
            -0.03171297973921531,
            -0.033172176855922754,
            0.03239521718565072,
            -0.04825881307247498,
            -0.04945136923186237,
            0.025778773819597627,
            0.003665504589635367,
            0.01926693551781246,
            0.029963387429985076,
            -0.024518890240086088,
            0.010658180183790802,
            0.0275697362299705,
            -0.006018363072041862,
            -0.031732463395288284,
            -0.009435678218638097,
            0.023804839869060047,
            -0.02694318796661989,
            -0.04862193371721828,
            0.02969085076648437,
            0.02527103474602175,
            0.01484727426545959,
            -0.050379200543168086,
            0.029240039758087942,
            0.020153151304712243,
            -0.05638049584668396,
            -0.031455877720022785,
            -0.014491153218808823,
            0.023565332723978955,
            -0.013564167561614068,
            0.003626327646590188,
            0.02588467921650028,
            -0.023490554658137354,
            -0.04320128082579297,
            0.03677916816316578,
            -0.046395305058126994,
            -0.029283624080861017,
            0.05067591930259277,
            -0.03398543783927027,
            0.005332869152081939,
            -0.03929104164325992,
            -0.024807107407190367,
            -0.03779599935309241,
            0.048480262358945245,
            -0.04220816794371345,
            -0.02938973197921044,
            -0.017249409824329615,
            0.04803916086366627,
            -0.03695955921742419,
            -0.033302366398210825,
            0.022543342990425663,
            -0.028297723699155994,
            -0.02956482957843305,
            -0.02998518143319752,
            0.007270759909759242,
            -0.02439760858024657,
            0.02102111318425261,
            -0.029225502882107724,
            -0.027053033336063924,
            0.035311185852173854,
            -0.05064027427614539,
            0.04290345154410834,
            0.01948501591945356,
            0.03295582755644941,
            -0.03152160908452685,
            0.0008691731450571346,
            -0.023410901471392985,
            0.030409216511149983,
            0.04687486388754197,
            0.026011854515808466,
            -0.04925319006401459,
            0.030927429607923846,
            0.006136556940141447,
            -0.0075521814502941325,
            -0.03779559367174371,
            0.008381610211782483,
            -0.010982966823848446,
            -0.0016514065432108034,
            -0.046364917193861384,
            -0.027174980302857376,
            -0.0041154237444705625,
            -0.051940990708140074,
            -0.03445609988693419,
            -0.014147567901412798,
            -0.01625301792106643,
            0.006265890018572233,
            -0.03171817097881041,
            0.041602467649822825,
            -0.03381401230181418,
            0.02666722380127327,
            0.004456774961045872,
            0.0328528148617779,
            -0.03466492099235669,
            -0.041066294189214564,
            0.004458555358952384,
            0.008826923371717426,
            0.005343336088035506,
            -0.03879613762372952,
            0.023218893536245167,
            -0.03583880963546281,
            -0.03229875868501299,
            0.04580997088430888,
            0.024910684094290397,
            0.0448412600568355,
            -0.005244132479816069,
            -0.05384423845726991,
            0.004846277836522429,
            -0.03654194731113704,
            0.04142005298743136,
            -0.008639290993593394,
            -0.019068842040244206,
            0.03856435399240285,
            0.005398691215218841,
            -0.048488271775096875,
            0.020018854850696623,
            -0.0009496015494228718,
            -0.004830605599969989,
            -0.038776952426856845,
            -0.04191077064140397,
            -0.001270600095721788,
            -0.04722043142268605,
            -0.01530969229441627,
            0.028680010392104792,
            -0.01103997006891,
            0.0012836527084563256,
            0.027240971634532176,
            -0.031039570828525553,
            0.048521668415288495,
            -0.03453737372524639,
            0.011952551888021492,
            0.006195221659366191,
            0.01722806549007926,
            -0.008464935077188963,
            -0.02811193454682191,
            0.03143984998379736,
            -0.03845556998279875,
            0.010742912716390277,
            -0.020907302809226282,
            0.026964361911579627,
            0.0246675381138357,
            0.0021566472209835767,
            0.001658724734850696,
            0.017395858498738447,
            0.04387358679140978,
            -0.01939960271150429,
            -0.005159909930663596,
            -0.006874986715060876,
            -0.030105204561326142,
            -0.011480458459247327,
            -0.033053121657963425,
            0.02327669240719159,
            0.04070844214021242,
            -0.04633840869964958,
            -0.04346531047993062,
            -0.0044937158117530065,
            0.0044779572564685195,
            -0.05010331091681354,
            -0.046961346996166185,
            0.04001284343700836,
            0.004381209209736818,
            0.03196188248294013,
            0.00920261381766509,
            0.03755175652045727,
            -0.05210673003283072,
            0.004655362876095665,
            -0.029436031961801813,
            0.025045043263665315,
            0.010405127932509951,
            -0.04303500174008402,
            0.03578154430140988,
            0.033434944527126684,
            -0.05512656179128913,
            -0.024800515908718093,
            -0.007553157127400449,
            0.014250702047472476,
            0.016986888884351247,
            0.024471631496237507,
            -0.0065126669690525165,
            -0.022365960810238526,
            0.020719434192222278,
            -0.033513429697932716,
            -0.008581110877279618,
            0.048744850098882485,
            -0.04657927438366273,
            0.03598469258974247,
            0.014955267378380845,
            0.006931215204576356,
            -0.025150538066914366,
            -0.02880356267926115,
            0.0032313169820074737,
            0.036739152550011124,
            0.0016058980788785935,
            -0.018624824724996915,
            -0.03560132050024396,
            0.010906488415214344,
            0.002087308583176558,
            -0.0591679521869987,
            -0.03855718292942975,
            0.03966814539799735,
            0.004338359361535834,
            -0.03179842678395052,
            0.03732578477685688,
            0.009011753998128771,
            -0.008697344168852787,
            -0.04154091714052221,
            -0.02040210513156015,
            -0.028789544312272184,
            -0.03855360817939538,
            -0.011675143138562633,
            0.019941453919629808,
            0.029088925139433196,
            -0.008813594497395813,
            0.04011600841516839,
            -0.039515936031060364,
            -0.023348481389326322,
            -0.02882455430635733,
            -0.050871305639953866,
            -0.004236397450688577,
            -0.055344150353221516,
            -0.051327976378392294,
            -0.04438922650310212,
            -0.059926254690955943,
            0.03710093031170656,
            -0.003526762091373416,
            -0.05273078778968973,
            -0.017161381127926506,
            -0.055181770367979346,
            -0.036500121759666486,
            -0.016524960618618405,
            -0.02207397261956867,
            0.027982628374422572,
            0.04446975988391072,
            -0.011536149894726334,
            -0.027835148823948486,
            0.03800830177444283,
            0.007617564650998379,
            0.03891619103966204,
            -0.039601655531963466,
            0.02943532530342766,
            0.0211571509373227,
            0.016449212506646018,
            -0.03024640542105734,
            -0.02926995494313394,
            0.04384782328506706,
            0.0068404377655357325,
            -0.01419882563703245,
            -0.01781816670512371,
            -0.01100861685490821,
            -0.016859633119912794,
            -0.006615386819814294,
            -0.04750391274771348,
            0.01925564145902469,
            -0.03803457883388202,
            -0.003936319200546729,
            0.04066032677486561,
            -0.017640674684407883,
            -0.0408263871946402,
            0.005462939085703796,
            -0.050361041382680855,
            -0.010369279066459694,
            -0.04005880178715649,
            -0.008779100559339286,
            0.02160733761473913,
            -0.02144789799693217,
            0.020403810781876603,
            0.030721081343192486,
            -0.02799504128284547,
            0.04458949277437179,
            -0.0045141434492356955,
            0.047959265804094216,
            0.010413605615812343,
            -0.037377107424013636,
            -0.007282802311736764,
            -0.006415809600944453,
            0.026187168176443558,
            0.020053954570088857,
            0.008281791130499904,
            -0.01406894882185892,
            0.026431632524310154,
            0.0364485260472795,
            0.037202005754625615,
            0.005637997064662496,
            -0.050712561322229344,
            -0.032709238779026706,
            0.020815042404074387,
            0.04205017074332997,
            -0.0048655817837583324,
            0.02162617584451463,
            -0.026332949355068348,
            0.04251727622758834,
            0.004472037955532768,
            -0.0170209421020541,
            -0.03915749582102254,
            0.0106364294505825,
            0.022474557039710852,
            -0.022857420108663318,
            0.021982189784803156,
            0.02267367890587026,
            0.03242382112832951,
            0.0470955428841323,
            -0.05152159888495611,
            0.004500310627165544,
            -0.028136240871178195,
            -0.05552255913147859,
            -0.051035852324753835,
            0.009220454091427382,
            -0.04456705068713037,
            -0.05362953530773781,
            -0.011987150626269653,
            -0.006743716197599733,
            -0.05028958515356523,
            -0.044557070788416725,
            0.03342522839812578,
            0.00950645642861564,
            -0.005764771388207167,
            -0.04043921177773436,
            -0.02633050649776318,
            0.03375010592801901,
            -0.035474968650248254,
            -0.023256501998386955,
            -0.0022275440472152765,
            -0.028386937734493106,
            -0.045590663827739956,
            0.017656697060226476,
            0.025409788514238675,
            -0.04529131500720329,
            0.018153604383745917,
            -0.028684869615590795,
            -0.04151151739266224,
            -0.0031321074383770502,
            -0.017053693734427337,
            0.029882821953253206,
            -0.0061501473781350865,
            0.041177540092133716,
            0.02475925927473592,
            -0.04732661693484941,
            -0.0001634248633629245,
            0.027646922227634974,
            -0.026230369174014844,
            0.032114143616496324,
            -0.04551364741515803,
            0.015352497329851979,
            0.041347411674773245,
            0.04533964159991303,
            0.038708462397448344,
            0.018480330332192423,
            0.009787832880187754,
            -0.04914669093479802,
            -0.010932723917885183,
            -0.0061762823747438635,
            -0.012167693315191127,
            0.042268734177553294,
            -0.025268587565320497,
            0.009417007505142749,
            0.0071225107469751825,
            -0.027658207657577254,
            0.011070608815708559,
            -0.006856717530572329,
            0.02530658561813239,
            0.0006372900570491285,
            -0.020064578533588603,
            -0.05297569636056356,
            -0.011957168310083467,
            -0.02983801478561353,
            -0.012461346143287757,
            0.02584077959422671,
            -0.04326689031604807,
            0.044940609922421125,
            -0.044511132950202315,
            -0.04750062539237938,
            -0.0019639887395733226,
            0.0030266634118558894,
            -0.010835493220354079,
            0.010761565141430923,
            -0.025696683631570426,
            -0.02024163921483193,
            -0.01713299314441153,
            -0.0035663406887225606,
            -0.0127891542069259,
            0.01110316484003704,
            -0.0023190423220955797,
            -0.023389712091658448,
            0.02381319024444035,
            0.0001223591673977848,
            -0.005499140846550357,
            0.010881575974768045,
            -0.025506796623278753,
            0.023188669913468365,
            0.00844264162714006,
            -0.041258431750132225,
            0.015517529681836253,
            -0.03869064022264844,
            -0.016652695789881263,
            0.04376528857827109,
            0.03920934141510869,
            -0.04053287065072491,
            0.04519151565358827,
            0.026321602457384356,
            -0.028633633684956944,
            -0.021315020571091723,
            0.02700737663365074,
            -0.004807582945800388,
            0.010809861875872873,
            -0.01975006564751759,
            0.019095670168778913,
            -0.011221988363782076,
            0.024925795828465748,
            -0.013905526083259264,
            -0.023575390845600713,
            0.03062389244864348,
            0.004952222475067296,
            0.0444785384462598,
            0.040251394800996154,
            -0.02348662322765353,
            -0.05537183142372368,
            -0.025447468726692804,
            -0.04647412168580863,
            -0.027134462906484767,
            -0.04692697712875564,
            0.030455675495279277,
            -0.031264236163215095,
            -0.05332322694882305,
            0.014744710467948893,
            0.04303872660606255,
            -0.04419756592349952,
            0.04250113332539307,
            -0.018762145867128033,
            -0.0007747856654196055,
            0.03223904447174038,
            -0.03165587757105745,
            -0.009917254660807564,
            0.01943975183736117,
            -0.05012390014459844,
            -0.015501033948073048,
            -0.02114544634472024,
            0.032867298487401844,
            -0.012307574350663444,
            0.04992713183387213,
            0.03837369444586136,
            0.04501247431831327,
            -0.04732032813507626,
            -0.04753693523978597,
            0.03965866908383182,
            0.0068038805534358536,
            0.014339946223307625,
            -0.047025327376807674,
            -0.001576468043911248,
            -0.03127498222200206,
            0.03295369244550043,
            0.03352559084338969,
            -0.011974459846049383,
            0.03306682249113258,
            -0.031550805191659884,
            0.020440941118797497,
            -0.019950269968924683,
            -0.03068308121355514,
            -0.03297282434922257,
            -0.027402879688486943,
            -0.011519342371908952,
            -0.006027081703108551,
            -0.010821751692617619,
            0.019995544500876008,
            0.011147110352678534,
            -0.016377079531260948,
            0.00766998946992921,
            0.014636314162937852,
            -0.018864246077360685,
            -0.050804147173904725,
            0.0049287628369889,
            -0.044967697280931154,
            -0.005873975652977756,
            -0.049358707998261246,
            -0.0033782800003374037,
            0.039295848729619956,
            0.0474210198284861,
            -0.04245554765139733,
            0.010701086908846176,
            0.03633995707490589,
            -0.01279140044912679,
            0.022592786518784713,
            0.0380680487782615,
            -0.023947920329061116,
            -0.034821084482162895,
            0.036338479556692595,
            -0.04742286344616462,
            0.02635682190176439,
            0.013101147857790024,
            0.004348530117594082,
            0.026424940978980228,
            -0.03705162662432863,
            0.03517178864033367,
            -0.02487360408029495,
            0.01627747643867549,
            -0.015799194324615934,
            0.036685562821495585,
            0.028046054091678145,
            -0.04222910262191056,
            -0.03209393340535136,
            0.04359380401650563,
            0.018425521607267233,
            -0.03627740905936606,
            0.043420431898435384,
            0.033690347921944114,
            -0.047359863370220426,
            -0.049421442206805145,
            -0.0046485453786979745,
            -0.030138686048627104,
            0.04788621030064187,
            -0.01921275239390984,
            0.019411155383085733,
            -0.010990746845002999,
            -0.03369392476340098,
            0.030158291983770773,
            -0.03979109266141811,
            0.02836333662804106,
            -0.0027857905840726225,
            0.007688671034355129,
            0.015782481076989513,
            -0.04997022829100247,
            -0.03817218723945503,
            -0.002623720755354295,
            -0.03442557828038471,
            -0.011468323646204736,
            0.029641390914436044,
            -0.043274319154766414,
            0.013547863052363333,
            0.025571358963981067,
            0.04607986391478011,
            0.03956008946581653,
            -0.004290953822307139,
            0.02780096852086042,
            -0.013933303322971055,
            0.02033541079697168,
            -0.02193739065117994,
            0.003887522301191057,
            0.047983382860025466,
            0.0003653161201828175,
            0.009411294122215988,
            0.028203669297370105,
            -0.025530123087853338,
            0.019817560030530222,
            -0.01109255762687605,
            0.046021084924757684,
            0.008089124391978212
          ],
          [
            0.011242129781142453,
            0.02500502338414001,
            -0.018189839859129635,
            0.04631487209234885,
            0.021654895082419134,
            -0.01631915037312759,
            -0.021253311031385613,
            0.011073885781793458,
            0.02269275959690667,
            -0.03887439592807511,
            -0.013493663087069164,
            0.03603340730010244,
            -0.032443487223980445,
            0.028096150928806015,
            0.028243121857025214,
            -0.018099987113542486,
            0.0413950028464119,
            -0.006575765336426513,
            0.004900763850423243,
            -0.031726391848818286,
            0.020710432620430087,
            -0.00635212069056473,
            0.00892986114020684,
            -0.02095008208248892,
            -0.04957800180697434,
            0.042626944988783125,
            -0.015611316579399926,
            -0.021067559871903008,
            -0.026718044315805003,
            -0.018363118809225205,
            0.010706406916958046,
            -0.03153827025470107,
            0.03704834132962875,
            -0.01420748191302595,
            0.032282902784605036,
            0.04281523424459049,
            0.007076539678404571,
            0.026742197094359214,
            -0.011587668344033807,
            0.0138414320276358,
            -0.05127255919903457,
            -0.01023659533622761,
            0.03358392169844052,
            0.042474782340241504,
            0.019025018938259704,
            0.002463569810332762,
            0.01086163542633362,
            0.0077482001308438716,
            0.004336325414033291,
            -0.03207222660053444,
            -0.03169457474452138,
            -0.001312239675462358,
            -0.011771291502748112,
            0.04571308684417534,
            -0.010561073532686963,
            -0.003730262501200174,
            0.006863078545815573,
            -0.03250760185238683,
            0.03306873609603329,
            0.028149580470004,
            0.03810600034229022,
            0.04455695170387338,
            -0.01570234470945601,
            -0.01478578571355923,
            -0.04500967433556994,
            -0.04272110638774047,
            -0.032244239001270124,
            0.03844153121568399,
            0.02264927354659712,
            0.0037074326619532683,
            -0.027701404522411537,
            0.0058421872394485925,
            -0.06731394227614743,
            -0.05736989605585784,
            -0.11057613058811719,
            -0.02553315567721524,
            0.001555671618963367,
            0.03096897808753809,
            -0.0303190867367174,
            -0.01648228209662988,
            -0.04491040505207204,
            -0.039113382908511365,
            -0.04901520470206095,
            -0.020836999626774988,
            0.016407670351508023,
            -0.012457265610239842,
            -0.016461472361784298,
            0.009889220691143138,
            0.029965526068707345,
            0.02631178667869078,
            -0.01368486769690019,
            0.04886301084963055,
            -0.03682625973331629,
            0.019408795330329222,
            -0.03909756923032622,
            0.030484131597802774,
            0.03412905675685711,
            0.11776912065279198,
            0.08253354459244491,
            0.041519889648180625,
            -0.07726020193221213,
            -0.17616431093871282,
            -0.096532550978535,
            -0.044029446420562376,
            -0.057558025288801926,
            -0.015274337323131505,
            0.008171989677546435,
            0.008369258091995594,
            0.05229754378851707,
            -0.03139373502685568,
            -0.029787357102688677,
            -0.038546989554672326,
            -0.02061316403709367,
            -0.03187179522458454,
            0.023474248123489472,
            0.048713071755462814,
            -0.008269682609599706,
            -0.03945630263519917,
            0.03182434533840126,
            0.024106690832766443,
            0.08178083305911807,
            0.06596256857498997,
            0.11751166169297822,
            0.10277680698990875,
            0.1558965054541485,
            0.2374736627513917,
            0.09345513799912164,
            0.02642092083244436,
            0.031184338779575868,
            -0.024914045132214846,
            0.025705907379263565,
            0.12470392461032315,
            0.13107626588513221,
            0.03576242848647275,
            0.005843306152725912,
            -0.04336952519928454,
            0.022052739652023583,
            0.013605955739464848,
            -0.006165931011868522,
            0.03874467757610496,
            0.041429345439204096,
            -0.039107301009872183,
            0.03326386381839742,
            -0.010921528579869506,
            0.05295643773072774,
            0.022752700839052408,
            -0.03425736591037517,
            -0.005797357099277323,
            0.05255617404807956,
            0.07308756137596299,
            0.15322465026770343,
            0.2496186145987502,
            0.2152352309043754,
            0.14089057633462523,
            0.12419635421969992,
            0.09242493321802131,
            0.0444962734253306,
            -0.13024892149663486,
            0.003468912138755008,
            0.040984265704909234,
            0.10241811753936009,
            0.056146193277301706,
            -0.024314244758539633,
            -0.06666208142995353,
            -0.03364128204656209,
            0.030997769893962905,
            0.041283774851643175,
            -0.00669293571653024,
            0.04750575336540749,
            0.04356224904516285,
            -0.029861271680560297,
            -0.0006727175185996439,
            0.062341778048654165,
            0.010439876897035114,
            0.046559771734607625,
            0.051943714558822275,
            0.06087399922817198,
            0.13055525629549353,
            0.14407175482092854,
            0.11598386267019414,
            0.12759200557719036,
            0.06582456274551104,
            0.15048176749690814,
            0.12132912444956077,
            0.1379333668039618,
            0.033457377576949866,
            0.03589266462032029,
            0.14171283733154666,
            0.09136873386400271,
            0.04138887226355563,
            -0.03588574379388253,
            -0.11827521948658747,
            -0.034655191123959594,
            -0.03373667105065377,
            0.013466876514334732,
            0.026833686081477008,
            0.010545337956243519,
            0.040089838635849334,
            -0.027526067503248024,
            0.01906250600093811,
            0.018957121597123414,
            0.14773642647819354,
            0.08058350702588714,
            0.04262457241697225,
            0.17166806863783307,
            0.019502798896247276,
            0.07573868724391478,
            0.0769627982744897,
            0.08870857188694499,
            0.089312387902654,
            0.08496570026450116,
            0.07004716796711337,
            0.015946758937975904,
            -0.025119755961947838,
            -0.023236365781500505,
            -0.021653914634456203,
            0.07750835094772386,
            0.043706452695443314,
            0.1037991981816204,
            -0.013804807642376918,
            -0.022131409050936246,
            -0.06779651473305526,
            0.009527151468177116,
            -0.04500772192026432,
            0.009337140099758338,
            0.035285715028094605,
            -0.03953610055302885,
            -0.007046407843670047,
            0.07578966673969605,
            0.17072096831791106,
            0.11636808640229439,
            0.022561890175204956,
            -0.07987086364281668,
            -0.022283209026255375,
            -0.12715161531173763,
            -0.1256615157791554,
            -0.08348034918816205,
            0.040062583029900976,
            0.09844932415182608,
            0.10031247238028637,
            0.004561394705511142,
            0.04545966008440965,
            0.03871900835029179,
            0.052617301111659194,
            0.03069072870491962,
            0.12171798142671779,
            0.14275777482193489,
            -0.08255049206170678,
            -0.024865735273252188,
            -0.01443828282107282,
            -0.002956485986981799,
            0.009440190480775679,
            0.005086257966598331,
            0.04334786909286431,
            -0.024221849978977857,
            0.0500911711454654,
            -0.00024367933413131242,
            0.10530762701729061,
            0.015964638032083717,
            -0.05440337938858065,
            -0.16267345145877077,
            -0.17632833754756544,
            -0.21570718777830952,
            -0.23212417703479674,
            -0.13167826749461986,
            -0.18556737008492985,
            0.1322397879693523,
            0.19169079140138148,
            0.1944148484644753,
            0.08717067656129528,
            0.01911108998331462,
            0.037270046278777655,
            -0.03777100738382665,
            0.0456347863201177,
            0.038782872932036236,
            -0.12854477529880923,
            -0.0927136145421333,
            -0.05457853330752092,
            -0.009185778478919344,
            0.02163387636321547,
            -0.045183386430575075,
            0.04809099140971046,
            0.0015450810983107547,
            0.05027768287664264,
            0.02390656974322133,
            0.04060567190507082,
            -0.08951872471717395,
            -0.24264905590629574,
            -0.17147793940213726,
            -0.20252656496714733,
            -0.1653869701173362,
            -0.2885976102305308,
            -0.17634852495882408,
            -0.22203183881451577,
            0.11052207795102854,
            0.21420825042651498,
            0.14498384700138478,
            0.07875129322258297,
            0.039946900322172865,
            0.14647578895912625,
            0.005976187134493254,
            0.004613288665347855,
            0.03664487639003746,
            -0.09063131053295362,
            -0.132408831951537,
            -0.00008452818134611196,
            0.0013869134721989852,
            -0.01761424685838624,
            -0.028743805136604322,
            0.020253220302895513,
            -0.01877395323908857,
            -0.04703047596249709,
            -0.01834976382217331,
            -0.0959121042028453,
            -0.027828674350357734,
            -0.1509709224967653,
            -0.19045053415296526,
            -0.16412896694558,
            -0.13105730684590747,
            -0.09677647348347783,
            -0.162199763882983,
            -0.06996174950370035,
            0.3194959942119357,
            0.3435139500770245,
            0.3609735833613417,
            0.024886557084698658,
            0.15107812636879236,
            0.1434159435411896,
            0.04863987543220407,
            -0.04598720169295437,
            -0.040739347246515574,
            -0.002948912583998563,
            -0.065056816246755,
            -0.0007733968507762548,
            -0.030007929849368536,
            0.04386702657657087,
            0.03262680471235368,
            0.04286775818618703,
            -0.04220784834361445,
            -0.04727556792938924,
            -0.01213140190650925,
            -0.07818933458463637,
            -0.12568249243609464,
            -0.11597360299162711,
            -0.20475089050697953,
            -0.13940416641185743,
            0.03782219331227836,
            0.002467725262912426,
            -0.07244623692304397,
            0.11184898749583734,
            0.43634676162711544,
            0.38697999871439426,
            0.29390415565201117,
            0.09468499429435843,
            0.17486872269914183,
            0.11872031559628304,
            -0.008083383851124776,
            -0.12348927938807955,
            -0.09043276827221114,
            -0.0775524720811142,
            -0.06205942480913256,
            0.0030192155160050217,
            0.01961376174601579,
            -0.01515954334437882,
            -0.011489717255277313,
            0.016931533150414797,
            -0.030618369835888518,
            0.008100612295447505,
            -0.0768397470606929,
            -0.08827656432767891,
            -0.11611823734242571,
            -0.17679339262811633,
            -0.11955385289553547,
            0.035877891714497595,
            0.0776672906169017,
            0.1502889143604692,
            0.02404443996877386,
            0.30391819568938944,
            0.5029515922217614,
            0.4136887005376125,
            0.2795609566026584,
            0.1670304438657764,
            0.11778585872039517,
            0.08287481184982223,
            -0.021870851432242294,
            -0.15404955998544406,
            -0.1168578460189152,
            -0.17474886538771578,
            -0.07981000866817256,
            -0.029508968732410035,
            0.009563585473203096,
            -0.03602704392192063,
            -0.04617360696593511,
            -0.0022395353884893322,
            0.0239450240369982,
            0.027674973421019693,
            -0.04898327099048904,
            -0.07491725219935398,
            -0.18194120654823218,
            -0.1122191911880516,
            -0.08398145979370085,
            -0.010369369210700868,
            0.1283743363512559,
            0.09110846321044827,
            0.1519426900710026,
            0.41556148377193675,
            0.4703736001362103,
            0.25161137770663067,
            0.2548380765244319,
            0.21592846827982723,
            0.13416225209114965,
            0.05016106992909979,
            -0.05914469973106864,
            -0.11910917004993211,
            -0.17397058819417266,
            -0.1541864931589491,
            -0.06295751140396301,
            -0.012156016409610743,
            -0.01921745650119681,
            -0.04622924814507468,
            0.024196368673955873,
            -0.013913747368741977,
            -0.0004905331125907087,
            0.028519388253097494,
            -0.06899256002223156,
            -0.11557973970802927,
            -0.11644179176218296,
            -0.046439667354983026,
            0.06075149210943303,
            -0.11709988675665609,
            -0.058525040433202814,
            0.010249784354472826,
            0.1298204898276582,
            0.3176962036122391,
            0.44018669675414035,
            0.2534873344959905,
            0.20940830555829787,
            0.17192463726902368,
            0.11230194545267949,
            0.014071530503274123,
            -0.060222156226205394,
            -0.1417530653668683,
            -0.19082473410881096,
            -0.14997362314472043,
            0.024613054610254384,
            0.01229728226870834,
            -0.02389836760184092,
            0.023428714606817416,
            0.04246049774514061,
            -0.027258004427037012,
            -0.0474549774451051,
            0.01915777046758619,
            0.006271854649868725,
            -0.05461422601044537,
            -0.16034166693447718,
            -0.07764709265379797,
            0.05988842854223289,
            -0.06739338988900188,
            -0.0988597733168167,
            -0.09827188590531015,
            0.11575976810944562,
            0.3749946919836562,
            0.3694629483349426,
            0.28406107180092555,
            0.28263428172540034,
            0.11077611734557537,
            0.16792149974108234,
            -0.06727058735529598,
            -0.08195375959842023,
            -0.0243329521692669,
            -0.17814821225257946,
            -0.07839342660153434,
            0.0033563687188696654,
            0.02600901591332463,
            0.03226680031921813,
            0.0330004513278787,
            0.007632049270770125,
            0.001287152607762182,
            -0.02054680267555549,
            0.016547002705962054,
            -0.015560504511161557,
            -0.06647201752023059,
            -0.016264494880151133,
            -0.045988218076359444,
            -0.06371173171311693,
            -0.137406406299856,
            -0.13120065906221967,
            -0.06196298387557245,
            0.2617546060408075,
            0.33958775292026117,
            0.2554936277050105,
            0.28500998655875065,
            0.11113868477637122,
            -0.05296630086682032,
            0.08326110599102945,
            0.04936882150160268,
            0.01764740705991365,
            0.0282878876507102,
            -0.015033462432087332,
            0.024815544433351343,
            0.08466456455349669,
            0.006790943886121831,
            0.027962342726093336,
            -0.029142694775960536,
            -0.02152747877305125,
            0.04880779662287511,
            -0.02890275581727219,
            0.0005773437148348502,
            0.052927136123579105,
            -0.024640950424930842,
            -0.011703855331737822,
            -0.0890588546207833,
            -0.17836840631116566,
            -0.11205813935926882,
            -0.12109534179650494,
            -0.09344285719600809,
            -0.0239859915705022,
            0.04461808429407411,
            0.12852343068354397,
            0.03499781659041887,
            -0.009094784583564297,
            0.03142950753301019,
            0.14763438502087173,
            0.03793388916737713,
            0.12256238557764189,
            0.14607646433945984,
            0.1839959717806979,
            0.08990867379375167,
            0.018898084403818103,
            -0.04100479005308526,
            -0.03925260692539609,
            0.05040481282027593,
            0.021936321788546514,
            -0.0070806525325493195,
            -0.037886363675667126,
            0.06270076330719827,
            0.08428489636363076,
            -0.0063849822939757005,
            0.09581854968485368,
            -0.07798042917066156,
            -0.04287040008885102,
            -0.14639751869199097,
            -0.19332430172282156,
            -0.08479678844833871,
            -0.1498286372479224,
            0.01752856008427308,
            0.08431843547075447,
            0.03281414545938745,
            -0.009406392057800058,
            0.08732062898439111,
            0.08606527376661312,
            0.10895740065281889,
            0.12742296646277385,
            0.16754001477188576,
            0.17409467337414217,
            0.09898760786294383,
            0.029313262361999878,
            -0.010384389102374167,
            0.04174518374654208,
            0.017146365845787805,
            0.034356216240932165,
            0.02472118750904791,
            -0.0200162018043071,
            0.07146868133627211,
            0.08763187996247972,
            0.02414152623426107,
            0.01877832852816114,
            0.0035378108798702805,
            -0.015351146806490511,
            -0.048858166957874226,
            -0.05414591259340687,
            -0.09610777013351461,
            -0.1307406690359501,
            -0.15174983058535554,
            0.0006244008464249678,
            0.054997349122227035,
            -0.09781455778714604,
            0.06532066213688503,
            0.11786343942474829,
            0.10492212725371126,
            0.0795548852098338,
            0.06807595746853597,
            0.09849143753943743,
            0.08515338203082318,
            0.002028157021800616,
            -0.029730247991636455,
            0.026433727347494277,
            -0.043861185723410336,
            0.03214278814329524,
            0.03176752140276327,
            -0.015007207896059771,
            0.018405253433831065,
            0.11079032000073187,
            0.08155810829184888,
            0.0051151810963298095,
            -0.014941655427193726,
            -0.003851265586300123,
            0.07483872162655475,
            0.06653622823439428,
            -0.11955398122860081,
            -0.10919259392067655,
            -0.0852346902580588,
            0.0455701146717017,
            0.048441049398833334,
            -0.05834541854736561,
            0.028567132244977204,
            0.1303499809187938,
            -0.062153000928782384,
            -0.08627690860182725,
            -0.04903047445306956,
            -0.04798398939346472,
            0.03176332832612559,
            -0.006139871220743543,
            0.015624017070646519,
            0.04268492296946711,
            -0.019784845150815158,
            0.03882889512138503,
            -0.047284092728221885,
            0.043070560900921546,
            0.0785072057564733,
            0.11287144017757253,
            0.09183991838695446,
            0.021725770242307207,
            0.03645777810522597,
            0.1424822975040459,
            0.17627405405533644,
            0.1217023609040642,
            -0.013208020477475515,
            -0.07338339333660705,
            -0.030795498780859458,
            -0.02057227272481423,
            0.005343395622484442,
            -0.026862402001994884,
            -0.019227172469517394,
            -0.07250073161917708,
            -0.014614544555270944,
            -0.006103227428914119,
            -0.023578565763888143,
            -0.014177338026475689,
            -0.03532852011489968,
            -0.01755145156900181,
            -0.012451928814376645,
            0.033013846683490576,
            -0.02238160573879122,
            0.009683588612115315,
            0.013014964799829434,
            0.03908332185810383,
            0.019028179230323888,
            0.0374173222622846,
            -0.007760276780613601,
            0.07481478298823653,
            -0.002310991871231215,
            -0.09039138950314876,
            -0.02293790207272699,
            -0.005193212009951631,
            -0.06374052602776487,
            -0.05928222718779401,
            -0.1515498241045235,
            -0.06536195434069526,
            -0.019882912483769465,
            -0.0038847629281287253,
            0.05397230299475014,
            -0.036143626848844757,
            0.03327504719176733,
            0.005974908816007509,
            -0.043199940526134906,
            -0.029316306920882513,
            0.026840520352876,
            -0.010885679749080833,
            0.013188648692303908,
            0.021554719475881202,
            0.041523183378634074,
            -0.008309357036434933,
            -0.0024263220956580725,
            0.029569012443264545,
            -0.01639574453974591,
            -0.012946293268348699,
            -0.060152689461931655,
            0.008915492379943633,
            0.040211525148658764,
            -0.07455757305968264,
            -0.10515887159314065,
            0.011993712073312936,
            0.00038889533869234874,
            -0.0725005541318847,
            -0.05019846260240729,
            -0.01125183392187115,
            -0.02464438508578144,
            -0.010024666892351932,
            0.07081939689866017,
            0.02758148062358002,
            0.03182450700627047,
            -0.005354528549960412,
            -0.07654364742460365,
            -0.004273335558039754,
            -0.005760168108363973,
            0.03435441468969889,
            -0.03843775482303737,
            0.0338625342165037,
            -0.04089563124591719,
            -0.03692498736273579,
            0.023566380312218527,
            -0.040330469084677224,
            -0.04744556055004695,
            -0.02448873451464336,
            0.005976632658046103,
            0.02427073706150424,
            0.054055490843370434,
            -0.012276815568843453,
            -0.03130446722018014,
            0.001933585946433881,
            0.09359498552955249,
            0.06253781627264696,
            0.025152332280808338,
            0.04144442803273896,
            0.08313320262005378,
            0.08498594966753677,
            0.022380807719945117,
            -0.024766473858960275,
            0.025840262944050375,
            -0.012978640436776705,
            -0.020723679331883238,
            -0.022982352115558772,
            0.050643603358918855,
            0.04019488061824785,
            -0.00277006722723776,
            -0.021228854218991688,
            0.009632983332805739,
            0.008454227679361718,
            -0.027527561241498015,
            -0.02440388113860452,
            0.030339601547691452,
            -0.032560740591577264,
            -0.016441179493397823,
            0.02282194285472032,
            0.042840341412022004,
            -0.016813910247181155,
            0.04326890602013343,
            0.07989186319191431,
            0.09900066214417887,
            0.052912259326896284,
            -0.02902756097359874,
            0.0562169536284189,
            -0.036510295944557,
            0.001863267748210351,
            -0.029114641244966186,
            -0.026871699520809776,
            0.0010873435229445056,
            -0.05533495247366333,
            -0.032086373828745046,
            -0.03187376323681017,
            0.014301942017738873,
            0.039987798244868776,
            0.006324783301644188,
            -0.016906146928734152,
            0.04581829892670053,
            0.00584375913755271,
            0.018726998829311964,
            0.03588729468382751,
            -0.016010550498354086,
            0.0008938872280012182,
            -0.03588845760631385,
            0.02391841963869,
            0.012733277059851682,
            0.04755831258505981,
            0.03357771207274623,
            -0.04029895797058728,
            -0.04143041533928642,
            0.024062885243541776,
            -0.03230201802090167,
            -0.012029954376718473,
            -0.054464239339698954,
            0.009969597685165962,
            0.008069054014828452,
            -0.014013355366478466,
            -0.05239484841735948,
            0.047059181743502695,
            0.021879814406072232,
            -0.026502991007311762,
            -0.03282838665531428,
            0.016693208229475242,
            -0.026906575262765402,
            -0.029016543886408123,
            -0.035801096651599036
          ],
          [
            -0.03298023111286766,
            0.04860905555268867,
            -0.0378118047037479,
            0.003589482358268473,
            -0.02053212763430055,
            -0.04904031774885505,
            -0.008722914898600668,
            -0.00999518472402829,
            -0.023804921764777227,
            0.001039963310026118,
            -0.004556764220438926,
            0.04167054242702237,
            -0.023076533558007123,
            0.010729194252416212,
            -0.015983750499640206,
            -0.0011975959094568936,
            0.009991304672427129,
            -0.039767707108564865,
            -0.0001276809713084143,
            0.04513867975985677,
            0.0021360508561570684,
            0.0407366097005491,
            0.03707482148123929,
            -0.0326637221760118,
            0.006913773605822694,
            0.04391058969280521,
            -0.019591538776596785,
            -0.046548296062350475,
            -0.042539243931607115,
            -0.041744153057684495,
            0.019592874127043514,
            0.03862079831043022,
            0.0036133930361998343,
            0.027210277681600552,
            -0.008984200378834547,
            0.041063986397927396,
            -0.0187611364125902,
            0.01637851990855669,
            0.03241897231556895,
            -0.05083134770006207,
            0.021523698791248273,
            0.04416435986355487,
            -0.025940818100191637,
            0.01425515471469905,
            0.04636283214009594,
            0.015557159420332404,
            -0.009994582695802856,
            0.023881729215753093,
            0.031271523588721845,
            -0.015706781279882974,
            0.02756551634011139,
            -0.00012335212941679016,
            -0.03634728086914229,
            0.05024406933346657,
            -0.013951106594758908,
            -0.014027278018528508,
            0.04986034790170565,
            0.038233986404670066,
            0.045759556966859516,
            0.024874331132770718,
            -0.012910269106877773,
            0.0026976010449778725,
            0.0236739474799071,
            -0.026200879693443056,
            0.011521613542124137,
            -0.005325864260080935,
            0.019335020015434773,
            -0.015658867833501407,
            -0.022774891302726457,
            -0.06892827879664414,
            -0.048580153374744396,
            -0.06148339111712287,
            -0.0345074641622399,
            0.026630690200167905,
            0.04295596616788727,
            -0.0032887006053335193,
            -0.014607388555120709,
            -0.03897179363007187,
            0.02580500856063749,
            -0.00812705393239912,
            -0.0034867443508716997,
            -0.020527847291834423,
            -0.011786554690480516,
            0.04902787343944808,
            0.02945620761232503,
            -0.032254078849288624,
            -0.001176032923645,
            0.02454075992048104,
            0.011156196513088011,
            0.004156638768022398,
            0.043391326549653754,
            0.03368388391388259,
            0.02464813066259546,
            -0.0057412154435214436,
            -0.014997634352975863,
            -0.09730875427799159,
            -0.05178035691942727,
            -0.09840080959039961,
            -0.06249988203546131,
            -0.06020458728618191,
            -0.016264889439957513,
            0.016675948442892056,
            -0.06171101029058894,
            -0.06777026121911689,
            -0.010190488921582013,
            -0.004523254096991194,
            0.004625944133742377,
            0.01891792196452912,
            -0.027122008271350116,
            0.04660366354691448,
            0.01846305222662696,
            -0.041809260893474136,
            0.011095087318602495,
            -0.015063773437236515,
            0.01659548055864578,
            0.0352662963342268,
            -0.027016102175456542,
            -0.04079325516333602,
            0.018449639878609734,
            0.05479089216863029,
            0.0335305650104731,
            0.053953264340643,
            -0.02395358901916892,
            -0.07589954535293059,
            -0.04120561256136514,
            -0.08136345773540123,
            -0.13084869887165057,
            -0.05551659534725758,
            -0.028969792705447663,
            -0.10792105426852378,
            -0.12155646399776214,
            -0.10860250143742994,
            -0.11354635044250823,
            0.01055368588782587,
            0.004818780774175138,
            -0.022634459370143214,
            0.00037840350684578054,
            0.03652765249273208,
            -0.01266063055544818,
            -0.03395120774602939,
            0.009516149996804505,
            0.028187715924679807,
            0.014180622368515685,
            0.017396352332573667,
            -0.04386752239128749,
            -0.043650578543729314,
            0.01906282966629688,
            0.05124396704637075,
            0.019070554285978435,
            -0.044980155238357605,
            -0.07002051911550625,
            -0.019547036906247227,
            -0.024619137249621604,
            -0.055018884783814906,
            -0.14347306179520092,
            -0.022617683701533834,
            -0.029495955136339132,
            0.010449559296654842,
            -0.024584003863036285,
            -0.07806490447544721,
            -0.10485857697207789,
            -0.03897285095343332,
            -0.020001684413541793,
            -0.015038586967999283,
            0.03783683316418561,
            0.01392844410257039,
            0.0069660458451436275,
            0.01358814887841475,
            0.0024893456779813625,
            0.022686074441223197,
            -0.031474207202451435,
            -0.03428778692042615,
            -0.054845912184478686,
            -0.03942573849641149,
            0.010250286307713779,
            -0.022548432197182666,
            -0.06304778245689194,
            -0.07935879153444438,
            -0.0635835056614616,
            -0.13688787254472093,
            -0.011630064377926692,
            -0.027110608921316056,
            -0.019094049142502695,
            0.07889455639964219,
            0.022007317954275636,
            0.05442333287225837,
            0.08522905412671754,
            0.01705122220883708,
            -0.05785777852971795,
            -0.05940694644510826,
            0.013033329366044738,
            0.022764389906461357,
            -0.007547516543290235,
            -0.012384826414666088,
            0.00846108574444807,
            0.006838037089893325,
            -0.03652929487876688,
            -0.04088448597158762,
            -0.034870498929618875,
            0.027987184745362787,
            0.009073976007244489,
            -0.05535964231496014,
            -0.025536109836260472,
            -0.05019328299988477,
            -0.05295910163137561,
            -0.10604090488225303,
            -0.08313530547134342,
            0.023619130315842375,
            0.018882984761605798,
            0.025089648098673645,
            0.06985993725333717,
            0.16266943881016524,
            0.18322284073915973,
            0.19512900932741176,
            0.09501350813899964,
            0.0832801471996948,
            0.08410904280591305,
            0.0012583088142709628,
            -0.04511323603040143,
            0.0466091359383481,
            0.027574642730722673,
            -0.051713792686091074,
            0.007367941896871982,
            -0.004350939961691228,
            -0.005355661078180174,
            -0.02967850614402987,
            -0.029532139889001174,
            0.030388830780127624,
            -0.043036608693542436,
            0.0071624995645793626,
            -0.0020869261709503223,
            -0.0007018053508769333,
            -0.06731752663154822,
            0.006630292357371917,
            0.03493138456020358,
            0.007219171269764648,
            0.07402004425548638,
            0.14127733255690084,
            0.0718448350011424,
            0.13925038670566414,
            0.1670122592249597,
            0.12786764425646824,
            0.1827598828541391,
            0.11765994980028074,
            0.093214522100928,
            0.06437842389641364,
            0.07624974332478401,
            0.09162514326948529,
            0.07245371568240301,
            -0.05144694573021867,
            -0.01590665112847516,
            -0.00021750746331520185,
            -0.0067748390889867775,
            -0.031011958986557852,
            -0.040902242294334486,
            -0.037981419461880536,
            -0.05198894380608882,
            0.013762543637953921,
            -0.01916369609473766,
            0.02639092195059634,
            -0.03139569652036275,
            0.030723255522666935,
            0.0744670871562798,
            -0.020024549737680017,
            0.15720836572519378,
            0.14773097420825979,
            0.08300784543813625,
            0.08145811486651218,
            0.0956390483692644,
            0.08887240427447653,
            0.19843845011269162,
            0.16985114323869763,
            0.22047208035393523,
            0.14443588274092303,
            0.15383679203797096,
            0.13104376813259028,
            0.06090292415555496,
            0.04889195195082191,
            0.015911023360158868,
            0.008532154441772194,
            -0.01678240951394779,
            -0.024205337682988735,
            -0.01396091650298445,
            -0.005188050925788282,
            0.038503732797155264,
            -0.00812009431408966,
            0.0247414005357488,
            0.09269427110463255,
            0.05009685026648623,
            0.06265867639027625,
            0.12030630660879542,
            0.08211588111309129,
            0.13159998191276773,
            0.09878284308104764,
            0.07765133813170289,
            0.05791537100674666,
            0.1530909624621151,
            0.18723193183231518,
            0.1265033110472562,
            0.14436073990205142,
            0.1784635811406168,
            0.19563656832405477,
            0.09816125906030901,
            0.08261220880695494,
            0.12919974872367243,
            -0.021150334785285597,
            0.0055409741962303425,
            0.0061403232031462885,
            0.015807850594622825,
            0.007685276490968795,
            0.04915080886356053,
            0.002949142521526942,
            0.0022368341681793104,
            0.10358092719118084,
            0.09990032439702662,
            0.04373918091359372,
            0.14912507747101478,
            0.04461113435030114,
            0.11555576999117936,
            0.14222434350607388,
            0.21223538493891775,
            0.09539891246671216,
            0.04950677805749191,
            0.037543358595526044,
            0.1535525088453946,
            0.11280966824973478,
            0.06521430344766868,
            0.11358820427597646,
            0.04153597212628025,
            0.08807757389773858,
            0.09867724687681997,
            0.12635073508488553,
            0.08650443519027318,
            -0.026119931178190333,
            0.038596402699842686,
            0.02989752210059925,
            -0.03847354638043079,
            0.0019131174163705244,
            0.038887917956225024,
            0.05953828784975153,
            0.03170352208684055,
            0.10948935823265124,
            0.07519519850821633,
            0.09350245925775523,
            0.12562580111802918,
            0.12958057842804852,
            0.17594063620161518,
            0.14371258874260576,
            0.03931079814511352,
            -0.007502481325383944,
            0.024650193938185273,
            0.055857912425029486,
            0.155330601661617,
            0.06713554185633953,
            0.09602785614691715,
            0.05408049643465513,
            0.008864974515853427,
            0.04075875225609779,
            0.11676341855275907,
            0.042610174303078494,
            -0.020064714134473038,
            -0.0036826459596582175,
            0.04797147904829719,
            0.003377090444205558,
            -0.00675831760885992,
            -0.03728941599717967,
            -0.012385543631022287,
            -0.006925390134886939,
            0.00594483977697232,
            0.15832236818458956,
            0.18551903722842028,
            0.14101918845778927,
            0.14584358259604333,
            0.0633526334209064,
            0.09253004030107119,
            0.04654336050673269,
            -0.10033008458524614,
            -0.10071238573327082,
            -0.07201174967738178,
            0.014822801926668698,
            0.0035933728211364553,
            0.007436127560755118,
            0.01689957556079898,
            0.00230333920206566,
            0.02940024649269719,
            0.025597754373062897,
            0.0777021231147063,
            0.061478336352072074,
            0.0021391318016594925,
            0.01221156284869816,
            0.04485751017312142,
            0.03102680991170563,
            0.03652847470635177,
            0.029647617826930667,
            -0.04638656549809087,
            0.009614783863559517,
            0.06719478044447202,
            0.08453437784538693,
            0.15893663257878732,
            0.07684363571183653,
            0.02146570745217173,
            -0.03378886188521507,
            0.007240324926786613,
            -0.0424450942321923,
            -0.030193707428718967,
            -0.144890208237258,
            -0.15213839384380295,
            -0.06118046546425593,
            0.04216407398782093,
            0.04847655009153402,
            0.032930129716782754,
            0.05885128090367445,
            -0.022266386215899603,
            0.03788803100627684,
            0.0873086547049216,
            0.015527965999313394,
            -0.004751918724475496,
            -0.018228753770815988,
            -0.05141630175462674,
            0.019914145617020332,
            0.02726715456336595,
            -0.015610542987893923,
            -0.03128933540535659,
            0.0035779288042708914,
            0.09547700586099774,
            0.17560815387752532,
            0.1265347215854767,
            0.133631852880476,
            0.05316560941770281,
            0.10732499251461296,
            -0.03882468145650545,
            -0.030928554457904475,
            -0.035227527535942174,
            -0.06721747696104495,
            -0.10786829703508294,
            -0.049292974870008985,
            -0.025270463101013597,
            0.12816862256119435,
            0.016346845387822943,
            0.02331905039145078,
            0.0120995043199743,
            0.02197393785396509,
            0.04649203405001925,
            0.03316110672044072,
            -0.03107066827412228,
            0.014190391977924226,
            -0.03365783465691286,
            0.02645908689725894,
            -0.04306047863186938,
            -0.012904125539939398,
            0.05034814064264252,
            -0.007053819743170814,
            0.060890084008597765,
            0.18382158282226072,
            0.22464230145733757,
            0.16723224319281943,
            0.10828479628533175,
            0.10066275374858878,
            0.02074484195733076,
            0.09277076191540187,
            0.00725880964966078,
            -0.1051154514633702,
            -0.07394005785314739,
            -0.04675521620637204,
            0.08227749220604079,
            -0.04107142984937375,
            -0.06533176350825712,
            -0.01802462231882829,
            -0.004615080208327245,
            -0.005167594370109875,
            0.02540342982717861,
            -0.048055962045005264,
            -0.0835531028091757,
            -0.010497538992225443,
            0.030853406420402414,
            0.0071888921013600815,
            0.03044315673618829,
            0.022049808761969374,
            0.040930132552835764,
            -0.003187455762577782,
            0.022233128182713124,
            0.10976246900144991,
            0.10281259032118571,
            0.11322252942049399,
            0.0884250345950606,
            0.07366479137540588,
            -0.06283156589479706,
            -0.08095406287713568,
            -0.0982041815940005,
            -0.11967675108878896,
            -0.026544334520222767,
            -0.016864880679234768,
            0.10775824541421763,
            -0.005918063795185947,
            0.005319207212274803,
            -0.028154565189284393,
            -0.13027310611866735,
            -0.022229514747814375,
            0.007335808256497567,
            -0.12576804517008253,
            -0.07174691230450428,
            -0.0017755400380209771,
            -0.036981954775900244,
            -0.027179018449198945,
            -0.037814932693194886,
            0.03814279298801371,
            0.04578223995556491,
            0.01918292510054931,
            -0.019442550371912365,
            0.06484745924170977,
            0.07983045135625746,
            0.029637734280433987,
            0.08604561841751734,
            -0.07164300764726236,
            -0.05811997990324305,
            -0.11835526988950419,
            -0.10829581260213461,
            -0.0473051749645913,
            0.049412035772907335,
            0.14653561749410451,
            0.0878788495445923,
            0.017183838063358558,
            -0.04073516864401275,
            -0.1546781329329315,
            -0.16384295483861458,
            -0.12297708080798435,
            -0.07795017461025144,
            -0.10542112112182543,
            -0.06437738949440439,
            -0.055319314478853306,
            -0.01934368897961216,
            0.019216915463053923,
            0.029894748600101474,
            -0.039988113204611334,
            0.01936197942404823,
            0.008043770072336389,
            -0.0032586709059296217,
            -0.026399309897685456,
            0.06796800984218576,
            0.09012684368125842,
            -0.04213547152092338,
            -0.06409256678630951,
            -0.12354365565163705,
            -0.16995350036091142,
            -0.16626139014250624,
            -0.044790624817109444,
            0.006786193014790632,
            -0.017865024771810338,
            -0.08384408795063035,
            -0.11680573286788988,
            -0.11689127196972553,
            -0.215610941377466,
            -0.1528405579138375,
            -0.09520693844888994,
            -0.1244746073873542,
            -0.1277857137281834,
            -0.10731553219969528,
            -0.004432580161375885,
            0.036723872990272716,
            -0.03749140339536115,
            0.04126176582726028,
            -0.049111341906835915,
            -0.003626026054955387,
            -0.0061981882255110485,
            0.0104925940651156,
            0.05564073883255597,
            0.018680465731228276,
            -0.0037904973800896267,
            0.019144897987763556,
            -0.05738542747411494,
            -0.18625482054914286,
            -0.15342698461586637,
            -0.11104976724466026,
            -0.06022917482067937,
            -0.05699193361241807,
            -0.057877755651894264,
            -0.10206295252580395,
            -0.10052451457125926,
            -0.17762814390778525,
            -0.07787527821897573,
            -0.110959770657165,
            -0.0174208058111512,
            -0.11781654591240316,
            -0.15087125353400635,
            -0.08103330574890329,
            -0.06474761342422909,
            0.0184694221710025,
            -0.001418386005225374,
            0.01744038539350032,
            0.04783520906653489,
            -0.028232780224290918,
            -0.03147129573254708,
            -0.05248878878395254,
            0.004069458016990568,
            -0.004328322231211559,
            0.003004752505170552,
